#include <stdint.h>

static uint16_t w0[] = {
		-8, 15, -1, -16, 7, -4, -7, -14, 10, -13, 6, 12, -10, -12, 9, -13, 12, 6, -2, -13, 16, 7, 14, -9, 8, -6, -6, 12, 8, -12, 4, 16, 1, 10, 3, 10, 10, 19, 29, 35, 31, 6, 0, 3, 2, 1, -4, 9, 2, 6, 5, -6, 9, -1, 33, 24, 21, 28, 7, -13, 9, -10, -12, 3, 5, 3, 14, -6, 5, 23, 30, 25, 26, 17, 10, -15, -3, 1, 5, 7, 2, 4, 3, -9, 15, 11, -7, -10, -12, 1, -3, 17, -5, -8, 8, 14, -4, -6, -14, -2, -13, -18, -13, -36, -31, -21, 2, -3, 22, 7, 8, 5, 14, -11, -7, 8, -2, -4, -22, -11, -35, -14, -5, 18, -11, -2, -3, -14, -15, -4, -6, -3, -11, -15, 7, -23, -26, 7, -10, 9, 11, 7, -7, 14, -5, -1, -6, 12, 22, 10, 32, 2, 7, 24, -10, 9, -7, -5, 7, -6, 8, 13, 1, 22, 42, 18, 38, 20, 35, 5, -3, 25, 28, 20, 4, 14, -3, -12, -2, 24, 44, 41, 38, 13, 29, 13, 13, 13, 14, 31, 4, 4, 6, -10, 14, 13, 10, 19, 21, -9, -5, -1, 18, 20, 12, 20, 6, -15, -15, 6, -3, 5, -15, -13, -14, -10, -17, -17, 10, -2, -10, -8, 4, -3, 0, 7, -2, -14, 5, -15, -16, 6, -12, 11, -6, -14, 7, 6, 13, 3, -14, -11, -3, 3, 11, 14, 10, 14, 1, 9, 6, 2, -15, -10, 4, 6,
		10, 1, 10, 9, -15, 8, -14, -3, -7, 1, -3, -10, 8, 12, 5, -6, -1, 13, -13, 11, 3, -8, 2, -9, 0, -9, -8, 11, 7, -8, -3, 0, 1, 3, 14, -15, -16, 10, -14, 14, -4, -11, -3, 2, -7, 7, -5, 8, 13, -2, 13, -6, -16, 4, 11, -9, -12, 10, 12, 4, 12, -3, 0, -7, -11, -11, -12, -2, -4, -13, -6, -2, -4, -3, -8, -8, -16, -10, -14, 6, 8, 12, -5, -5, 2, -12, 9, -14, -16, -12, 11, 8, 16, 4, -11, -7, -15, 5, -6, 12, 14, 2, -7, -1, 2, -2, 7, 14, 10, -12, 5, -3, -1, 7, 1, -1, 14, -6, -8, 10, -15, 5, 11, -16, 15, -10, 13, 2, 3, -8, -4, -13, -9, -14, -2, -11, -6, -16, -8, -8, 10, 12, 9, 7, -11, -15, -5, 10, -3, 6, -12, -13, -4, -17, 13, 4, 4, -11, -13, -8, -4, -16, 2, 8, 8, -7, -4, 5, -8, 12, -2, -5, -13, -11, -6, -9, 3, -11, -17, 12, 7, 6, 12, 8, -9, -8, 10, 6, -2, -1, 0, -12, -11, 1, -4, -8, -6, 0, -6, 12, 0, 4, 0, 7, 7, 10, -10, -9, -6, 10, 1, -3, -6, -14, -9, -8, -4, -9, 12, -6, 2, 8, 3, 12, -3, -15, -7, 1, 16, 11, 6, 13, -7, -13, 14, 8, 6, 8, 10, 2, -14, 10, 0, 2, -8, 11, -2, 2, 3, -4, 15, -6, -8, 4, -12, 13,
		4, 11, 5, 7, -1, 10, 4, -14, -2, 5, -1, -7, -5, -6, 9, 13, 8, 8, 5, 8, 1, 6, 6, 15, 9, -7, 0, -7, 3, -5, -4, 8, -11, 8, 5, -5, 5, 10, 19, -12, -11, 0, 10, -6, 5, 5, -12, -10, 3, 9, 14, 2, -6, 9, -1, -3, -33, -30, -7, -15, 6, -9, -1, -16, 0, -3, -4, 10, -3, 0, 10, -26, -31, -37, -11, -13, 10, -2, -2, -8, -11, -8, -6, -4, 18, 38, 14, -12, -33, -25, 24, 6, 1, 11, -11, 9, 11, -7, 12, 22, 9, 31, 39, -24, -46, 18, 22, 4, -5, -4, -14, 4, -5, -14, -13, 3, 22, 43, 25, -23, -43, 38, 58, 20, -10, -4, -15, 9, 1, -15, 3, 18, 52, 56, 47, 15, 34, 82, 38, 22, 1, 13, -15, -13, -15, 15, -5, 21, 35, 34, 69, 54, 75, 68, 35, -1, -16, -6, -1, -2, 9, 3, -5, 4, 0, 24, 12, 42, 56, 41, 1, -11, -7, 10, 12, 2, -9, -12, -2, -17, -1, -26, -9, 9, 29, 8, 12, 18, 15, 21, -13, -7, 15, 6, 8, -25, -28, -24, -14, -4, -21, 2, 5, -4, 18, 7, 13, -7, -12, -11, -8, 0, -16, -32, -16, -24, -7, 2, -1, 18, 20, 13, 14, -10, -14, 9, 7, -12, -14, -5, -15, 8, 0, 10, -3, 17, 5, -5, 12, 2, 14, 11, -9, -3, 3, -9, -1, -15, 16, 5, 8, -12, 1, 3, -3, 0,
		6, -7, -3, 5, -9, -4, 7, 8, 5, 9, 12, 5, -14, 0, -10, 0, -6, -15, 8, -6, 0, -13, 7, -14, -6, -14, 10, 0, 3, -13, -12, 0, 15, 14, -8, 4, 7, -14, -10, -17, -7, -14, 5, 15, 5, -10, -15, 3, 0, 15, 2, -15, -9, -25, -22, -4, -8, -11, -4, -5, 2, -13, 7, 13, 7, 9, -15, -1, 3, -15, -4, 16, 10, 4, -4, 10, 11, 5, -16, -3, -7, -9, 2, -8, -13, 0, -11, 6, 19, 9, 5, -1, 12, 11, -15, -15, 12, 6, -10, -13, -10, -14, -2, 13, 37, -3, -5, -12, -6, 14, -9, 16, -1, -2, -2, -6, 15, -12, -3, 26, 32, -8, -6, 7, -8, -4, 14, 15, -7, 13, 4, -5, 12, 11, 4, 15, 36, -11, -12, -15, 15, 9, 10, -16, -12, 3, 13, 2, -10, -6, -3, 5, 29, -24, 4, -15, 1, -10, 8, 8, 8, 16, -10, 4, -15, -1, -8, 20, 19, -7, -9, -13, -23, 8, -3, -6, -3, 2, -8, -12, 2, 1, -1, 20, 25, -9, -26, -12, -14, -20, -16, 7, 6, -13, 13, 5, -6, 6, 15, 21, 16, 16, -23, 1, -9, 5, 5, -6, -4, -2, 13, 16, -1, 10, 12, -1, 27, -8, 7, -16, -4, 0, 0, -4, -1, -5, -10, 1, -13, 12, -10, -11, 9, -5, -1, -13, -2, 3, 1, 0, 16, 4, 7, -2, -10, 16, 13, -1, -4, 3, -14, -4, 3, 15, -2, 8,
		-16, 16, 2, -14, 15, -3, 9, 10, -16, -11, 5, -7, -2, -3, 5, 4, -4, 6, 6, 5, -8, -7, 15, 7, -4, -6, 13, -12, 6, 15, 3, -13, 3, -2, 14, 7, 19, 3, 10, 25, 23, 28, 26, 5, 10, -12, 15, 16, 11, 15, 6, 6, 29, 31, 47, 62, 64, 54, 47, 10, 3, 2, -7, -11, -8, 2, 0, -8, 7, 30, 52, 32, 47, 62, 30, 29, 20, -13, -15, 7, -10, 14, -4, 9, 6, 5, 14, 1, 0, 6, 27, 8, 16, 8, -9, -5, -5, -13, 13, 6, -20, -15, -2, 12, 8, -16, -8, 10, 9, 18, 16, -10, 15, -8, 6, -17, -18, -23, -13, 15, -8, -6, 4, 10, 6, 25, 17, -13, 12, 4, 5, -12, -26, -14, -2, -7, -36, -34, -16, 8, 16, 16, 4, 15, -11, 9, 9, 8, 7, -2, -19, -45, -39, -10, 5, 14, 25, 17, 15, -14, 1, 2, -5, 45, 56, 18, 13, -13, -33, 21, 52, 46, 33, 12, -3, 13, -13, 16, 2, 41, 67, 72, 45, 16, 14, 28, 44, 53, 40, 7, 5, 11, -8, -4, 23, 39, 45, 76, 66, 37, 35, 32, 23, 8, 4, 20, -9, -15, 13, 1, 15, 11, 5, 29, 22, 14, 4, 4, 8, -17, -12, 11, -13, -10, 12, -13, 14, -2, 9, -12, 18, -6, 3, 7, 12, 5, -9, 10, -13, -15, 16, 9, -15, -7, -4, 10, -14, -8, -8, 14, 15, -16, 12, 2, -9, 11,
		-11, 10, -15, -12, 9, -7, 10, 9, 15, -4, 13, 2, -4, -12, -13, -2, 8, -8, -5, 14, 0, -14, 10, -16, 1, -15, -5, 16, -16, 6, -7, 6, -10, 0, 8, -7, -15, 9, -8, -4, -7, 15, -1, 3, 10, -3, -3, -3, 5, -8, 3, 1, 0, 26, 17, 18, 19, 33, 3, 11, -8, 2, 0, -4, 12, 10, 18, -6, -6, -3, 11, 17, 32, 15, 21, 12, -1, -3, -16, -12, 4, -16, 11, -12, -20, -29, -29, -8, 48, 36, -2, 0, -23, 2, 9, -6, -8, 15, 16, -1, -8, -23, -5, 41, 80, 64, 2, -26, -30, -2, 6, 7, -10, -4, 6, -15, -19, -25, 14, 77, 126, 46, 15, -28, -15, -23, 4, 16, 12, -13, 15, -7, -38, -28, -15, 55, 75, 5, 7, -12, -17, 4, -4, -7, 6, 9, 8, -8, -36, -45, -25, 6, 16, -3, 22, 19, 7, -9, -10, 10, -3, 6, -8, -12, -21, -40, -14, 17, 8, -17, -1, -6, 7, -18, 1, -14, 1, 4, -7, 11, -29, -28, -2, 9, -7, 18, -5, 7, -17, -23, 1, 9, 5, 15, 17, 0, -1, 6, 17, 28, 35, 20, -5, -6, -18, 6, 6, -14, 4, 2, -9, 10, 14, 20, 26, 53, 44, 22, -7, -5, 0, 12, 13, 12, 9, -5, 1, -9, 3, 19, 19, 3, -7, 2, -5, -1, -1, 15, -9, 9, -5, 4, -12, -2, 13, -13, 11, 4, 2, -6, -1, 5, -5, -11, 15, 6,
		6, 5, -14, 2, -10, -10, 1, 3, 14, -13, -3, -8, 14, -1, -14, -8, -13, -16, 16, 7, -4, 15, -4, 13, -16, -6, 9, -8, 7, 13, 3, 5, -3, -2, -9, -14, 12, 0, 4, -8, 7, -11, 4, 1, -12, 0, 6, 4, 8, -5, 12, -8, -13, 10, -14, 13, -16, 6, 4, -1, -15, 4, 13, -7, 5, -13, 0, -6, -8, 12, -14, 4, -5, 0, -7, 14, -9, 0, -15, 1, 3, 0, -5, 12, -12, 8, 8, -4, -4, -9, -6, 3, -6, 4, -2, -4, -12, -11, 11, 5, 5, -15, -14, 2, -12, 15, 11, -11, -7, -7, 0, 11, -12, 8, 10, -2, -11, -2, -14, 5, 1, -1, -17, 3, 15, -3, -1, 2, 3, 1, 15, 1, -8, -1, -14, -15, -8, -6, -16, 9, -3, 3, -15, -10, -5, -2, 1, 8, 9, -1, -1, 5, -14, 9, -5, 8, 3, 6, -3, 7, -12, -5, 1, -5, -2, -13, -15, 2, 7, 9, -6, -15, -15, -14, 7, -11, 2, -10, -1, -1, 2, 2, 4, 11, 14, -14, 14, -6, -16, 8, -12, -14, 11, -1, -3, -4, -10, 11, -5, -16, -6, 6, 6, 2, 13, 11, 13, -2, 2, 13, 15, 11, 3, -5, -4, 15, 3, -12, 5, 12, -4, -12, -5, -13, -1, 14, 8, -13, -15, 10, -6, -13, 14, -9, -8, 5, -7, 13, -1, -11, 12, 0, -12, 5, 1, 12, 0, -4, 16, -1, -14, 2, -3, 3, 15, -4,
		6, -12, -15, -5, 8, -5, 13, 1, 9, -9, 0, 3, -15, -15, -3, 5, -3, -8, -4, 2, -3, 5, -14, -15, 10, 3, 10, 7, 3, -15, 4, 6, -4, 8, -14, 10, -17, -2, 5, 13, -9, 4, -11, 6, 9, 1, 15, -14, 12, 2, 10, -8, 11, -10, 15, -7, -11, -2, -3, 0, -8, -3, -10, -4, 3, -15, 6, 4, -15, -8, 9, 7, -9, 14, 3, 15, -7, -10, 6, -12, -6, 12, 3, -8, 13, 0, -7, -7, -9, 13, -4, 10, -5, -12, 15, -9, 0, 5, -8, 7, 25, 13, -3, 8, -12, -14, -2, 5, -4, 8, 8, 11, 12, 14, 6, 0, 8, -6, -18, 1, 1, -15, -13, 6, -4, 10, 2, 4, 8, 9, 14, 6, 20, 2, -14, 1, -9, 4, 0, -3, 18, 15, 15, -1, -14, 10, -1, 15, 4, 7, -15, 9, 1, -11, -4, 10, 3, 21, -14, 9, -10, -10, 6, 12, 19, 2, 10, -9, -9, -11, -11, 2, -1, -1, 6, -6, -11, -8, 14, -9, 18, -2, -9, -7, 13, -3, 5, 18, 10, 11, 4, -15, 16, 3, -5, 7, -5, 13, -3, 4, 6, 15, -6, 9, -15, -6, -10, 6, 7, -7, 15, 8, -11, -3, 6, -5, 0, 16, -11, 9, 4, 1, -9, 4, 3, -16, -15, 11, 1, -3, 0, 5, 2, 4, -14, -11, 2, -2, 14, 10, 12, -9, -10, -1, -16, 5, -3, -13, -4, 3, 9, 10, -9, -3, 5, -6,
		16, 13, -2, -3, 4, -8, -1, -1, 7, 15, -13, -7, -14, 6, 7, 7, 13, 5, -10, -16, -13, -14, 11, -7, 3, -16, 0, 0, -5, 9, -12, 9, 15, 3, -14, 9, -6, 6, 12, 1, 4, 7, 3, -16, 11, -2, 16, 9, 0, -12, 3, 2, 19, 17, 11, 14, 7, 27, 13, 11, 4, -11, 13, 14, -5, 8, 4, -3, 4, 25, 38, 25, 2, 19, 10, 31, 5, 12, 15, -1, 9, -9, -4, 12, 26, 15, 22, 23, -5, 10, 42, 15, 8, -8, -4, -2, -6, 4, -6, 1, 10, 57, 60, 1, -32, 18, 48, 38, 18, 23, -10, 2, 2, 8, 8, 10, 37, 67, 59, 18, -12, 27, 31, 12, 30, 14, 3, -1, 10, 13, 13, 34, 55, 46, 37, -9, -17, 47, 51, 41, 8, 13, 15, 11, -7, 12, -10, 24, 17, 26, 25, -15, -25, 41, 44, 36, 14, -2, 11, -4, -12, -5, 1, 13, 7, -12, -7, -43, -31, 42, 47, 32, 14, -12, -3, 9, -12, -13, 2, 21, 2, -7, -3, -9, 18, 35, 24, 9, 4, -14, -9, -10, -1, 10, -1, -7, 10, 0, 5, 30, 25, 31, 15, 11, 11, 6, 10, -7, 8, 9, -3, -2, 0, 1, 20, 46, 26, 26, 9, 17, -15, 13, -6, 7, -6, 1, -10, 11, 15, 20, -3, 5, -8, -10, 12, -12, 1, 11, -7, -8, -13, 10, -8, 13, -12, 8, 11, 12, -14, 2, -9, 7, 2, -11, -5, 13,
		6, -6, 3, 4, 11, 7, -2, 13, -6, -12, -7, -8, -6, 6, 1, 8, -2, 1, 5, 13, 0, 1, 13, 15, 7, 12, 6, 4, -10, -4, -15, 16, -3, 5, -8, -6, 3, 7, 17, 9, 6, 24, 17, -6, 8, -13, 13, 3, 13, 10, -16, -7, -3, 4, 6, -10, 16, 31, 9, -10, -2, -5, -6, 4, -7, 15, 0, 5, -5, -3, 9, 8, 30, 10, 17, 20, 10, 15, 1, 8, -11, 1, -4, 12, -11, 20, 11, 27, 29, 10, -5, 17, 4, 9, 11, 5, 12, -4, 10, 2, 14, 7, 13, -17, -23, -24, 5, 6, 13, 13, -4, 3, 2, 11, 12, -8, 3, -5, -9, -24, -17, -22, -16, 17, 8, 0, 13, -7, 11, -3, -1, -2, 16, 18, -2, -16, -15, -15, -2, -6, 20, 11, 13, -7, -9, 1, 5, 16, 34, 39, 12, 27, 28, -5, -6, -12, -2, 10, 3, -3, -9, 14, -14, 24, 38, 42, 27, 29, 44, -3, 14, 1, 9, -2, 4, 5, -11, 13, 11, -4, 24, 43, 28, 41, 9, 12, 6, 19, 5, 16, 11, -12, 10, 1, 10, -16, 3, 12, 17, -1, -7, -12, -6, 10, 10, -5, 5, 12, -14, 10, -3, -1, -17, -23, 6, 5, -23, 2, 8, 15, -5, -4, -7, 0, 9, -15, 11, -13, -5, 0, -20, 11, -18, 8, 14, 7, 8, 4, -12, -5, -13, -13, 12, -14, 2, -11, 6, -6, 12, -5, -4, 15, 1, 12, 10, -8,
		8, -3, 4, -13, 14, 0, 15, 12, -7, 10, -4, -11, -10, -16, 4, -11, -12, -4, 8, 7, 9, -14, 13, -11, 17, 16, 10, -4, -10, 4, 12, -7, 13, 3, -14, 6, 16, 14, -1, 21, 6, -6, -2, -3, 3, -15, -4, 9, -10, 9, 15, 16, 3, -1, 16, 15, 6, -9, -3, -11, 5, -11, 14, 15, -7, -2, -15, -8, 8, 4, 9, 14, -9, 7, 4, 15, -10, 13, 7, -3, -14, -1, 11, -3, -4, -7, -12, -13, 2, -6, -2, -16, 2, -7, 1, 4, -8, 4, 1, -14, 11, 7, -12, -16, -2, -4, 4, -6, 3, -14, 10, 8, 11, 16, 14, -19, -20, -7, -23, -10, -11, 9, 17, -5, -3, -13, -3, 9, -6, -2, -9, -17, 7, 3, -12, 13, 4, 23, 15, 2, -17, 11, -9, -7, -14, 8, 12, 11, -6, -1, 24, 40, 17, 3, -2, -9, -11, -6, -14, 13, -13, -14, 7, 14, 16, 9, 17, 13, 19, 20, -5, -1, 7, 17, -6, -3, -3, 13, 10, 5, 20, -3, 14, 18, 16, 0, -9, 15, -4, -3, 15, -12, -11, 4, 2, 3, -1, 14, 9, -2, -8, -12, 13, 10, 1, 9, -4, -10, -4, 5, -2, -16, -10, 7, -10, -13, -11, -3, 2, 1, 2, -13, -1, -11, 10, -9, 5, -13, 13, -13, -11, -12, -8, -14, -14, 13, 14, 7, -6, -5, -2, 0, 7, 14, -11, -6, 6, 2, -3, 5, 7, -6, -6, -12, -3, -8,
		5, -3, -6, -3, -10, 13, -16, -4, 2, 5, -8, 11, -5, 7, -11, -13, -4, -14, -3, 3, 6, -14, -5, 0, -4, -1, 13, 3, -6, -2, -2, 1, 16, 15, 13, 2, -9, 10, 19, 29, 14, 17, 13, 11, 3, -13, -1, -9, 14, -1, 1, -5, 15, 1, 20, 11, 17, 16, 22, 0, -2, 11, 6, 4, 10, 1, -13, 12, 0, 13, 18, 6, 7, 18, 0, -13, -16, -17, 0, 13, -14, 15, 11, 16, 10, -26, -20, 5, 27, 9, 8, -10, -4, -2, -4, -7, -16, 2, -11, -17, -5, -31, -14, 0, 31, 20, 11, -16, -6, -9, 13, 4, -9, -14, -14, -7, -18, -34, -27, 21, 68, 7, -7, -7, -29, -23, -15, 15, 12, 1, 1, 2, -12, -33, -6, 45, 59, 21, 13, -24, -21, -7, -15, -5, -7, -5, 9, -3, -15, -10, -1, 43, 31, 8, -1, 10, 0, -15, -13, -8, 0, 14, 7, -12, -1, -14, 26, 49, 36, 13, -12, 13, -5, 3, -14, -4, -2, 1, -4, 9, 7, 21, 33, 15, -2, 1, 17, 0, 8, 4, -4, 6, -6, 8, 14, 16, 21, 25, 1, 12, 16, -3, 6, -7, 21, 18, -11, 7, 6, -15, 3, -3, 16, 14, 1, -8, 16, 13, -2, -4, -1, -2, 8, 5, -8, 11, 13, 2, -12, 14, 9, -10, 0, -13, 9, -2, 13, -13, -7, 6, -12, 13, -6, -5, -1, -6, 8, 7, 5, -16, -13, -16, 1, -14, -9, 13,
		8, 8, 13, -3, -15, -3, 12, -12, 0, 9, 10, 4, 3, 11, -13, -11, -14, -9, -15, 14, 6, -5, -11, 12, -11, 5, -2, -14, -5, 8, -6, 0, 13, 7, 10, -15, 2, 4, -12, -26, -6, -20, -9, 12, -4, 17, -2, -14, 0, 12, -3, -3, -2, 1, 3, -14, 0, 13, 23, 3, 0, 13, -3, 13, 2, -14, -4, -16, 4, 22, 7, 18, 2, 8, 11, 12, 15, 1, 16, 4, -2, 1, 11, -6, 0, 18, 30, 10, 5, 27, 27, 27, 8, 14, -11, -8, -6, 2, -7, 5, 17, 42, 44, 18, 11, 4, 13, 8, 20, 17, 6, 0, -4, 13, 9, 26, 51, 62, 53, 16, -22, 24, 14, 7, 17, 16, -6, -4, 9, 8, -3, 22, 51, 48, 33, -10, -14, 10, 27, 24, 12, 0, -11, 0, -4, -3, 0, 26, 15, 13, -14, -24, -30, 6, 36, 15, 3, 10, 9, -8, -13, -14, -5, -13, 3, 7, -21, -29, -13, 0, 14, 16, 11, -12, -13, 2, -14, 15, 10, 0, 4, -17, -14, -12, 5, 36, 6, -7, -20, -19, -12, -6, 14, -7, -7, -13, 12, -3, 4, 7, 38, 14, 0, 11, -19, -4, -6, -10, 6, 0, 2, 16, 0, 22, 32, 40, 28, 25, -2, -1, 6, -1, -15, 9, 8, 6, 10, 16, 9, 15, 6, 20, 17, 12, -9, -6, 1, 1, 1, 15, -8, 11, -1, -4, -8, 0, 8, 2, -2, 7, 12, 10, 7, 14, -8, -5,
		0, 0, -13, -5, 8, -8, 16, -13, 0, -7, 8, 13, 8, -2, 3, 9, -12, -8, -11, 10, -15, 4, 8, -10, -1, -10, -11, 13, 13, 12, -1, -8, -15, 2, -12, 16, 17, 11, 18, 2, 32, 31, 17, 1, -12, 6, -10, 10, 14, -4, 15, -9, 1, 3, 13, 8, 11, 20, 12, 24, 11, 11, 15, 7, -1, -13, -12, -8, -11, 6, -10, 12, 1, -4, 15, -10, -14, -1, -6, -11, -9, 6, -8, -7, -13, 1, 4, -13, 37, 25, 13, -17, 1, -18, -9, -5, -5, 7, -10, -6, -9, -7, -33, -16, 25, 18, -7, 8, -18, 3, 4, -10, -12, -3, -12, -9, -11, -34, -34, 3, 55, 31, 9, -4, -5, -13, 3, -12, -11, 15, 11, -6, 3, -13, -23, 63, 96, 38, 3, -20, -15, -24, 3, -14, 12, 8, -13, 13, 0, 1, 43, 79, 87, 14, -10, -16, -10, 11, 18, 0, 8, -5, 11, -10, -9, 19, 67, 100, 75, 11, -19, -11, 10, 11, 2, 11, 12, -8, -5, -5, 11, 5, 40, 55, 38, -9, 1, -8, 14, 17, -12, -4, 12, 10, -12, 15, -5, 8, -7, 3, 3, 7, -15, 12, 9, 18, 4, 2, 9, 15, -9, -16, 10, 5, -9, -12, 3, -11, -11, 9, 4, 17, -12, 5, 16, -7, 14, 1, 5, 4, -16, -15, 1, -8, -6, 3, 13, -8, 10, 8, 10, 10, -9, 6, -11, 12, -10, 13, -10, -14, 2, -15, -8, -4, 4, 3,
		-8, -3, -9, -2, 14, -5, 2, 0, -5, 7, 9, 8, -7, 11, -6, -6, -16, -16, 3, -7, 15, 4, -3, 12, -17, 10, -2, 6, -4, -4, -14, -3, -9, 12, 9, 5, -14, -2, -23, -7, -13, 1, -2, -5, 16, 0, -4, 6, -9, -5, 3, -18, -1, -30, -31, -32, -18, 9, 15, 4, 16, 2, 8, 6, -8, 3, 5, -10, -25, -7, -9, 13, 16, 19, 26, 20, 8, 14, 16, -8, -8, 5, -16, 10, 3, 14, 23, 26, 27, 19, 5, 10, 11, 13, -7, -8, -14, 8, -10, 18, 8, 40, 36, 19, 32, 21, -2, -2, 26, 19, 12, 15, 3, 2, -11, 19, 29, 33, 7, -9, 31, -12, -20, 2, 37, 26, 3, 0, -6, -11, 7, 14, 36, 27, -10, 13, 22, -30, -29, -4, 20, 22, -14, -5, 0, -7, 0, 17, 4, 5, 1, 19, 20, -19, -26, 2, -8, 10, 10, -8, -10, -7, 10, 5, 18, -10, 13, 37, 31, 0, -20, -19, -12, 6, 12, 3, 4, -11, 5, -12, 2, -8, 3, 15, 17, -7, -29, -6, -22, -4, -2, -12, 15, -6, -18, 0, 5, 15, 15, 25, 14, -10, -17, -18, -10, -4, 14, 4, 6, 6, 11, -12, 6, 12, 3, 27, 15, 5, -6, 13, -14, -14, 3, -3, -15, -4, 5, 0, -17, -16, 8, -8, 10, -1, -15, 12, -8, 15, 2, -4, -5, 16, -2, -11, -1, -3, 7, -15, 4, -1, 2, -6, 2, -4, -2, -13,
		1, -9, 13, 15, -7, 8, 8, 8, 1, -13, -8, 15, -3, 5, -1, 0, -4, -8, 11, 5, 10, -6, 0, 1, 10, 5, 13, 7, 5, -13, 3, -8, 14, 5, -15, 14, -1, -9, -11, 5, 1, -9, -2, -14, -4, -8, 7, -1, -14, 9, 16, 2, -3, 1, 9, 11, -8, -8, 12, 4, 5, 11, -15, -14, -6, -1, -14, -6, 22, 7, 17, -14, 0, 6, 7, 13, -13, -5, -15, 16, -13, 4, -14, 3, -2, 8, 7, -18, -10, 12, 11, -12, -14, 1, -4, 14, -1, 4, 5, -16, 6, -11, 11, -4, 11, 23, 18, 5, -19, -9, -6, -5, 3, -4, -12, 11, 11, 8, 18, -2, 32, 18, 28, -1, 0, 4, 15, 8, -15, 12, -9, 3, 6, 8, 27, 39, 13, 30, 36, -6, -5, 3, -1, 9, -13, -13, 2, -2, -7, 5, 4, 9, 41, 24, 11, 18, 0, -8, 7, 6, -6, -6, -6, 1, -14, -13, -10, -4, 13, 5, -5, -10, 9, -13, -13, -13, 11, 2, 13, -8, -20, -13, -1, -1, 8, 5, 9, 7, 8, 5, 16, 13, -4, 15, 9, -1, 7, 0, -12, -11, 14, 3, 6, 18, -8, -4, 16, -3, 12, -9, 5, 4, 11, -10, -1, 1, -3, 18, 9, 11, 8, -10, -9, 8, -12, -8, -2, 14, 16, 5, 10, 6, -12, 8, 7, 14, 9, -10, 10, 14, 3, 9, -9, 14, 10, -11, -8, -2, 12, -10, 0, 12, 2, 3, -12, -4
};

static uint16_t w2[] = {
		1, -7, -104, 12, 171, -110, -32, 73, 145, 96, -79, -106, 135, -129, 112, -62,
		-100, 20, -92, 105, -49, 174, 49, -25, -133, 13, 13, 118, -69, 196, 122, 21,
		128, -11, 60, -76, 145, -79, -18, -11, 2, 105, 59, 81, -93, 147, -78, 24,
		-76, -36, -111, -4, 147, 180, 1, -31, 128, -108, -50, 52, 75, -36, -58, 58,
		-93, 20, 231, -7, -171, -42, 7, 14, 156, 1, -12, -45, 112, 42, 68, 85
};

const char* JSON_NETWORK_ACTIVATION_BY_LAYERS = "{"
		"\"layerSizes\":[256, 16, 5],"
		"\"activations\":[\"relu\",\"relu\"],"
		"\"weights\":["
		"	{\"col\": 256,\"row\": 16,\"grid\":[-0.02995801717042923, 0.06048697978258133, -0.002946428954601288, -0.06107449531555176, 0.02679802104830742, -0.01696252077817917, -0.02779264748096466, -0.056286174803972244, 0.03849232196807861, -0.05000436678528786, 0.024424076080322266, 0.04861428588628769, -0.03985276073217392, -0.046753861010074615, 0.03411564230918884, -0.05052979290485382, 0.04517974704504013, 0.022527853026986122, -0.008742393925786018, -0.05066727101802826, 0.062364302575588226, 0.026007739827036858, 0.053034428507089615, -0.03516918420791626, 0.03014925681054592, -0.022327156737446785, -0.021649466827511787, 0.04837314784526825, 0.031033264473080635, -0.04622801020741463, 0.014481677673757076, 0.0615147203207016, 0.003024834208190441, 0.03878860920667648, 0.012466434389352798, 0.0395042821764946, 0.03866112604737282, 0.07528496533632278, 0.11167799681425095, 0.13535179197788239, 0.1194702610373497, 0.023510392755270004, -0.0005924610886722803, 0.010853460989892483, 0.006297060754150152, 0.003394116647541523, -0.017178183421492577, 0.03566662594676018, 0.007927153259515762, 0.02358255349099636, 0.021471811458468437, -0.02235528640449047, 0.036224570125341415, -0.004387729335576296, 0.1286611109972, 0.09520506113767624, 0.08283349871635437, 0.1091209426522255, 0.028640110045671463, -0.050829626619815826, 0.03539573773741722, -0.03724842146039009, -0.04594644531607628, 0.013408058322966099, 0.021307677030563354, 0.012909130193293095, 0.05555287376046181, -0.024945644661784172, 0.020482642576098442, 0.08794059604406357, 0.1188504621386528, 0.09635322540998459, 0.10226814448833466, 0.06603248417377472, 0.037451326847076416, -0.05731799453496933, -0.012851576320827007, 0.0024806750006973743, 0.02031637169420719, 0.026580873876810074, 0.006764846853911877, 0.01636527106165886, 0.012301694601774216, -0.034016773104667664, 0.05968417972326279, 0.04229094088077545, -0.027383223176002502, -0.0394115187227726, -0.04544103890657425, 0.004223932977765799, -0.011462533846497536, 0.06553984433412552, -0.021227886900305748, -0.03169982135295868, 0.030398068949580193, 0.05479440093040466, -0.01705203391611576, -0.02349504642188549, -0.05637354776263237, -0.00738817872479558, -0.05086296796798706, -0.0693742111325264, -0.052363600581884384, -0.13989150524139404, -0.11964311450719833, -0.08237404376268387, 0.008371480740606785, -0.010437574237585068, 0.08625631034374237, 0.028943244367837906, 0.03144276142120361, 0.018109511584043503, 0.05275893956422806, -0.04448710381984711, -0.027249827980995178, 0.03209258243441582, -0.008127541281282902, -0.01596992090344429, -0.08412407338619232, -0.043058063834905624, -0.13531973958015442, -0.05481681972742081, -0.021167026832699776, 0.0693906769156456, -0.044787850230932236, -0.009761900641024113, -0.011358927935361862, -0.05349377170205116, -0.058934617787599564, -0.015113444067537785, -0.02262396551668644, -0.012584862299263477, -0.04388309642672539, -0.059490419924259186, 0.02872750163078308, -0.08808569610118866, -0.10342574119567871, 0.027783697471022606, -0.04091234505176544, 0.03442823514342308, 0.04122244566679001, 0.0276692695915699, -0.02923468127846718, 0.05439844727516174, -0.018208114430308342, -0.0033619338646531105, -0.022066453471779823, 0.04682949185371399, 0.08549461513757706, 0.03974408283829689, 0.12449295818805695, 0.00814561266452074, 0.027077514678239822, 0.09461159259080887, -0.040228016674518585, 0.03531870245933533, -0.027394339442253113, -0.01964290626347065, 0.02918519638478756, -0.024127688258886337, 0.03091084584593773, 0.051838334649801254, 0.0026397460605949163, 0.08644169569015503, 0.1643456667661667, 0.07092979550361633, 0.1485917717218399, 0.07932853698730469, 0.13576126098632812, 0.018203794956207275, -0.013169827871024609, 0.0964980497956276, 0.10943172872066498, 0.0788445770740509, 0.014908770099282265, 0.05574354901909828, -0.010619315318763256, -0.04662017896771431, -0.006663805339485407, 0.09403558820486069, 0.17268970608711243, 0.1610202044248581, 0.14819954335689545, 0.04939847066998482, 0.11423172801733017, 0.0521237887442112, 0.05018197000026703, 0.051458150148391724, 0.05384812876582146, 0.12054425477981567, 0.01687699742615223, 0.014980367384850979, 0.025034474208950996, -0.038136374205350876, 0.05416688323020935, 0.051540933549404144, 0.04076240584254265, 0.07482939958572388, 0.08337751775979996, -0.03573855012655258, -0.02016795054078102, -0.005342333111912012, 0.0698477253317833, 0.07703261822462082, 0.04737843945622444, 0.07919818162918091, 0.022776460275053978, -0.05800262466073036, -0.05832550674676895, 0.022969815880060196, -0.013116772286593914, 0.017960838973522186, -0.05984208732843399, -0.04916154593229294, -0.054694660007953644, -0.039953917264938354, -0.06678804010152817, -0.06797975301742554, 0.037134427577257156, -0.006971081718802452, -0.040259312838315964, -0.03156532719731331, 0.014614967629313469, -0.01004743855446577, -0.0019416585564613342, 0.026156116276979446, -0.009039120748639107, -0.05583672225475311, 0.019750086590647697, -0.05684338137507439, -0.06194552779197693, 0.02435203641653061, -0.046242449432611465, 0.04148472473025322, -0.024532953277230263, -0.05524839833378792, 0.026555024087429047, 0.024120546877384186, 0.05094804987311363, 0.011302394792437553, -0.05625604838132858, -0.044188544154167175, -0.01112908311188221, 0.011645844206213951, 0.04432062804698944, 0.056285884231328964, 0.037592336535453796, 0.05469618737697601, 0.0055059208534657955, 0.034396443516016006, 0.024425514042377472, 0.0077452207915484905, -0.059096936136484146, -0.03840896859765053, 0.015979409217834473, 0.024139493703842163, 0.0375116690993309, 0.0020088404417037964, 0.03952006250619888, 0.03575044125318527, -0.05817466229200363, 0.02955782227218151, -0.05311835929751396, -0.009839671663939953, -0.025663956999778748, 0.0030526109039783478, -0.010115780867636204, -0.04081863909959793, 0.0306989923119545, 0.045344188809394836, 0.019491620361804962, -0.02158605307340622, -0.0037558674812316895, 0.051555197685956955, -0.05191892758011818, 0.043010447174310684, 0.011443770490586758, -0.029593830928206444, 0.008245918899774551, -0.03678811341524124, 0.0014954262878745794, -0.03525790944695473, -0.032810814678668976, 0.04356275126338005, 0.02583383023738861, -0.030774982646107674, -0.013350286521017551, 0.00132056325674057, 0.0024672746658325195, 0.012168518267571926, 0.05398989096283913, -0.058650076389312744, -0.06200913339853287, 0.04060478135943413, -0.05412418767809868, 0.055202215909957886, -0.014088393189013004, -0.044388383626937866, -0.009960572235286236, 0.00933840125799179, -0.02648850344121456, 0.027218369767069817, -0.017945513129234314, 0.03185831010341644, 0.050135888159275055, -0.007432860787957907, 0.051309991627931595, -0.02249395288527012, -0.06266900897026062, 0.01698317937552929, 0.04237612709403038, -0.03461737185716629, -0.04601225629448891, 0.037466831505298615, 0.045399125665426254, 0.016813822090625763, 0.048463087528944016, -0.013196519576013088, 0.0008867424912750721, -0.027071937918663025, -0.04284699261188507, -0.041482411324977875, -0.04727794602513313, -0.00884771253913641, -0.01582929864525795, -0.049332790076732635, -0.02418065071105957, -0.008426071144640446, -0.014884820207953453, -0.01351736020296812, -0.029671061784029007, -0.03216421604156494, -0.06278204172849655, -0.037893783301115036, -0.054543521255254745, 0.024414142593741417, 0.03024674952030182, 0.04764830321073532, -0.019210852682590485, -0.018581675365567207, 0.00882755871862173, -0.04537424445152283, 0.034793756902217865, -0.054299600422382355, -0.06202910467982292, -0.04575079306960106, 0.04214335232973099, 0.02982475608587265, 0.06096883863210678, 0.01642680913209915, -0.04338090121746063, -0.025899164378643036, -0.05824815481901169, 0.018394343554973602, -0.022881511598825455, 0.04579370468854904, 0.05453551188111305, 0.009631051681935787, -0.02563142217695713, -0.002648589201271534, 0.007551386021077633, -0.0075735608115792274, 0.028066786006093025, 0.05559702590107918, 0.039911266416311264, -0.04862738028168678, 0.017829502001404762, -0.010038147680461407, -0.005514480173587799, 0.025540217757225037, 0.004652698989957571, -0.0055354745127260685, 0.054624948650598526, -0.022197086364030838, -0.03285502642393112, 0.03850270435214043, -0.05978510156273842, 0.020795326679944992, 0.04394135624170303, -0.06219499185681343, 0.06001388281583786, -0.04004783555865288, 0.04980561137199402, 0.006558709312230349, 0.01190910954028368, -0.03073175810277462, -0.014133501797914505, -0.051199667155742645, -0.0346718356013298, -0.0556476004421711, -0.009345036931335926, -0.042595889419317245, -0.022701876237988472, -0.06302914023399353, -0.032031428068876266, -0.032386504113674164, 0.040001556277275085, 0.0468776561319828, 0.03350040316581726, 0.0255378820002079, -0.04480203986167908, -0.060264814645051956, -0.019512109458446503, 0.0384749136865139, -0.010786409489810467, 0.022663485258817673, -0.04860096424818039, -0.05125170201063156, -0.014029090292751789, -0.06582781672477722, 0.049464400857686996, 0.017282381653785706, 0.015128043480217457, -0.04149255156517029, -0.05098936706781387, -0.03230004012584686, -0.016535736620426178, -0.06268458813428879, 0.007334963418543339, 0.031331270933151245, 0.03284700587391853, -0.027866560965776443, -0.014844744466245174, 0.017877811565995216, -0.031391292810440063, 0.045499660074710846, -0.00923839770257473, -0.017720447853207588, -0.052454572170972824, -0.04211660102009773, -0.022721249610185623, -0.03708406165242195, 0.013145293109118938, -0.04364237189292908, -0.06554191559553146, 0.04495655372738838, 0.02574213594198227, 0.023380465805530548, 0.04781392216682434, 0.032660793513059616, -0.03634399175643921, -0.0294047798961401, 0.039004530757665634, 0.02168731763958931, -0.007638716604560614, -0.005112423561513424, -0.0017378885531798005, -0.04621313512325287, -0.04359918087720871, 0.003236381569877267, -0.014507818035781384, -0.03187710791826248, -0.022782383486628532, 0.00182384776417166, -0.021833181381225586, 0.046274423599243164, -0.0014714571880176663, 0.014445021748542786, -0.0015910870861262083, 0.0263211652636528, 0.026716317981481552, 0.039161067456007004, -0.037590354681015015, -0.03650488331913948, -0.023854397237300873, 0.03903401270508766, 0.0036486361641436815, -0.01240641251206398, -0.024606460705399513, -0.053932640701532364, -0.03697098791599274, -0.03054000809788704, -0.01588178053498268, -0.03567320853471756, 0.048305656760931015, -0.024362359195947647, 0.006428973283618689, 0.032634224742650986, 0.01008341833949089, 0.047441765666007996, -0.009855203330516815, -0.05796509608626366, -0.027437390759587288, 0.005663539748638868, 0.06139650568366051, 0.043607935309410095, 0.025074606761336327, 0.0496550090610981, -0.02853892557322979, -0.050444815307855606, 0.05411580577492714, 0.03270532563328743, 0.02148468978703022, 0.030019955709576607, 0.03858484700322151, 0.008922457695007324, -0.05390889197587967, 0.04069267958402634, -0.0014913380146026611, 0.007627725135535002, -0.031119316816329956, 0.04107226803898811, -0.006354017648845911, 0.008599596098065376, 0.01000235229730606, -0.01493554562330246, 0.05900171771645546, -0.022806420922279358, -0.03305552899837494, 0.014799910597503185, -0.04873638600111008, 0.04989078640937805, 0.014490172266960144, 0.04358294606208801, 0.02053193747997284, 0.029018528759479523, -0.0055361478589475155, 0.0374126173555851, 0.017274096608161926, -0.056116316467523575, -0.0058823139406740665, 0.018884513527154922, -0.0034184157848358154, -0.025645554065704346, -0.02080509066581726, -0.021510660648345947, 0.03350549191236496, 0.0512612983584404, 0.029926151037216187, 0.030724624171853065, 0.017676806077361107, 0.032271698117256165, 0.003637340385466814, 0.02190355584025383, 0.022134682163596153, 0.05777072161436081, 0.03509870544075966, -0.025623654946684837, 0.0014727022498846054, -0.026262842118740082, 0.01230620313435793, -0.02043773978948593, -0.015241393819451332, 0.029418878257274628, -0.04466835409402847, 0.031740814447402954, 0.01762973703444004, -0.019874723628163338, 0.02074492536485195, 0.04094801843166351, 0.07234568148851395, -0.04791060462594032, -0.04104192182421684, 0.0007228543981909752, 0.03911154717206955, -0.024182027205824852, 0.021080801263451576, 0.021413756534457207, -0.04844671115279198, -0.040458984673023224, 0.01148640550673008, 0.034241076558828354, 0.05393965169787407, 0.007618751376867294, -0.022207705304026604, 0.03450176492333412, -0.0058411662466824055, -0.011369569227099419, -0.12792746722698212, -0.11651714891195297, -0.026888802647590637, -0.05939589440822601, 0.02505798637866974, -0.03546256944537163, -0.0032099655363708735, -0.06218096241354942, 0.0011841157684102654, -0.012318114750087261, -0.013953075744211674, 0.03713228181004524, -0.013116243295371532, 0.0017137618269771338, 0.03807486593723297, -0.1005137637257576, -0.11968016624450684, -0.14480990171432495, -0.043970197439193726, -0.05200422182679176, 0.03970102220773697, -0.008277012966573238, -0.009397624991834164, -0.030228624120354652, -0.0428071990609169, -0.0302092544734478, -0.022174324840307236, -0.014573552645742893, 0.07039221376180649, 0.14904682338237762, 0.05588393285870552, -0.04721112921833992, -0.1283046007156372, -0.09606385231018066, 0.09315753728151321, 0.025323305279016495, 0.004550361540168524, 0.0435720793902874, -0.04208921268582344, 0.03401004895567894, 0.0415562205016613, -0.0259542278945446, 0.04761058837175369, 0.0861358568072319, 0.033974360674619675, 0.12238845229148865, 0.15090756118297577, -0.09297944605350494, -0.17808137834072113, 0.06877874583005905, 0.0859147161245346, 0.015695562586188316, -0.021429523825645447, -0.016627784818410873, -0.05607463791966438, 0.015306254848837852, -0.021430421620607376, -0.05357753857970238, -0.05133228003978729, 0.010571286082267761, 0.0863715410232544, 0.16932861506938934, 0.09925830364227295, -0.09177254140377045, -0.16899189352989197, 0.14713597297668457, 0.22803658246994019, 0.07856380939483643, -0.040104448795318604, -0.017501341179013252, -0.057804569602012634, 0.033541489392519, 0.0051515959203243256, -0.05870248004794121, 0.010425908491015434, 0.06990845501422882, 0.20279094576835632, 0.2192031443119049, 0.18550395965576172, 0.05741206184029579, 0.13240721821784973, 0.3191632926464081, 0.14893925189971924, 0.08523540198802948, 0.004831660073250532, 0.05011025071144104, -0.05820595473051071, -0.0511217936873436, -0.05936373770236969, 0.05711832270026207, -0.020505664870142937, 0.08341219276189804, 0.13478203117847443, 0.13291393220424652, 0.26942208409309387, 0.2095286101102829, 0.2938469350337982, 0.2668866515159607, 0.13603217899799347, -0.005461846478283405, -0.06279946118593216, -0.022183483466506004, -0.004824662581086159, -0.009139596484601498, 0.03658297657966614, 0.011261183768510818, -0.020529041066765785, 0.016820231452584267, -0.0011149218771606684, 0.09383676946163177, 0.045782670378685, 0.16291002929210663, 0.21822217106819153, 0.15853382647037506, 0.0025979832280427217, -0.04156776890158653, -0.028388720005750656, 0.03731357306241989, 0.04543466493487358, 0.00898429099470377, -0.035289715975522995, -0.04650150239467621, -0.007589542772620916, -0.06614738702774048, -0.0051803807727992535, -0.1016344353556633, -0.034507524222135544, 0.03479495644569397, 0.11462070792913437, 0.029400771483778954, 0.04585903137922287, 0.07116878777742386, 0.05765863507986069, 0.08283651620149612, -0.05093426629900932, -0.027780592441558838, 0.059218864887952805, 0.023875044658780098, 0.032032791525125504, -0.09684816002845764, -0.11107464134693146, -0.0941380187869072, -0.054120611399412155, -0.017018452286720276, -0.08054691553115845, 0.009680148214101791, 0.018079029396176338, -0.01705140992999077, 0.06858150660991669, 0.02686057798564434, 0.0499730259180069, -0.026164745911955833, -0.045228175818920135, -0.04410320892930031, -0.03165293112397194, -0.001348193152807653, -0.060801368206739426, -0.12465861439704895, -0.06353618204593658, -0.09463051706552505, -0.025953277945518494, 0.009667854756116867, -0.00349393836222589, 0.07017171382904053, 0.07871293276548386, 0.051491349935531616, 0.05308923497796059, -0.038159389048814774, -0.05494765192270279, 0.03637867420911789, 0.02884860523045063, -0.045507125556468964, -0.05599338188767433, -0.01849442906677723, -0.05680935084819794, 0.031779564917087555, -0.0004908320843242109, 0.04080100357532501, -0.011438939720392227, 0.06476498395204544, 0.01798122562468052, -0.019095439463853836, 0.04603603854775429, 0.008591046556830406, 0.05439841002225876, 0.04264648258686066, -0.035011883825063705, -0.012461538426578045, 0.011315333656966686, -0.035057567059993744, -0.0056693414226174355, -0.06045316532254219, 0.06177397072315216, 0.02024208940565586, 0.029443036764860153, -0.04630906507372856, 0.0046051787212491035, 0.012487676925957203, -0.012494147755205631, 0.00027585774660110474, 0.023491807281970978, -0.026556119322776794, -0.011990465223789215, 0.01978258788585663, -0.03367060050368309, -0.016614973545074463, 0.028586873784661293, 0.030461536720395088, 0.02066168747842312, 0.0360664464533329, 0.04595591872930527, 0.01811443269252777, -0.055766284465789795, 0.0004288703203201294, -0.03822716325521469, 0.001263245940208435, -0.022052474319934845, -0.06016315519809723, 0.030935177579522133, -0.024919433519244194, -0.000667333893943578, -0.049331627786159515, 0.0260013360530138, -0.053518082946538925, -0.022591346874833107, -0.053299471735954285, 0.04100385680794716, -0.0017166892066597939, 0.011427460238337517, -0.05095216631889343, -0.04732876271009445, 0.0018916279077529907, 0.05694765970110893, 0.05330882593989372, -0.03138522431254387, 0.0150105319917202, 0.028508303686976433, -0.05398567393422127, -0.03759013116359711, -0.06706822663545609, -0.027200235053896904, -0.056194793432950974, 0.018708808347582817, 0.057155489921569824, 0.020249096676707268, -0.04061603546142578, -0.05745122954249382, 0.009947859682142735, 0.001119447872042656, 0.05753956362605095, 0.00908277090638876, -0.05866440385580063, -0.03431697562336922, -0.09924314171075821, -0.08764289319515228, -0.0157233364880085, -0.030560951679944992, -0.04231835529208183, -0.013825945556163788, -0.019173573702573776, 0.008732892572879791, -0.0504220612347126, 0.02777833864092827, 0.05250752344727516, 0.028881054371595383, 0.035444196313619614, -0.05790288373827934, -0.0031987971160560846, 0.013375778682529926, -0.05695352330803871, -0.01729005202651024, 0.06185772642493248, 0.03993789851665497, 0.014152801595628262, -0.013754858635365963, 0.03729718551039696, 0.0441729873418808, 0.019336918368935585, -0.060936279594898224, -0.01064198650419712, -0.027643809095025063, -0.03542609140276909, 0.008494085632264614, -0.0320100300014019, -0.05176948010921478, 0.001799320918507874, -0.04375819116830826, 0.022637665271759033, 0.07463997602462769, 0.03334459662437439, 0.019402189180254936, -0.005336708854883909, 0.04857266694307327, 0.04455672949552536, -0.060515351593494415, -0.05945777893066406, 0.04711604863405228, 0.02153882384300232, -0.03737347200512886, -0.05097661912441254, -0.037612106651067734, -0.05452529713511467, -0.0067739603109657764, 0.05199025943875313, 0.14617487788200378, -0.013462100178003311, -0.02018396370112896, -0.046951550990343094, -0.025335125625133514, 0.053061384707689285, -0.03328162431716919, 0.0608476847410202, -0.0024698274210095406, -0.006065716035664082, -0.00648488849401474, -0.02252121828496456, 0.05863219499588013, -0.04573935270309448, -0.012281347997486591, 0.10314584523439407, 0.12394719570875168, -0.031687699258327484, -0.023162007331848145, 0.02652878873050213, -0.03185593709349632, -0.015583335421979427, 0.05309941619634628, 0.0572391152381897, -0.02829747088253498, 0.05042394995689392, 0.017025470733642578, -0.020742647349834442, 0.045615050941705704, 0.041218552738428116, 0.01625441201031208, 0.05898911505937576, 0.1415454000234604, -0.04196471720933914, -0.04610734060406685, -0.06025572493672371, 0.057161543518304825, 0.03559638187289238, 0.03929176554083824, -0.06283823400735855, -0.04782930016517639, 0.010314244776964188, 0.04971897229552269, 0.007254499010741711, -0.040571484714746475, -0.024194607511162758, -0.012473524548113346, 0.019924327731132507, 0.11230674386024475, -0.09307373315095901, 0.01747382991015911, -0.0579378642141819, 0.005279175471514463, -0.04061899334192276, 0.032609619200229645, 0.03006959892809391, 0.03007739596068859, 0.06196899339556694, -0.03999437019228935, 0.016992945224046707, -0.06029490381479263, -0.004926737863570452, -0.03061918169260025, 0.07936110347509384, 0.074092335999012, -0.026857882738113403, -0.036663517355918884, -0.05219029262661934, -0.08947648108005524, 0.029496923089027405, -0.010694950819015503, -0.025265105068683624, -0.010738281533122063, 0.009435851126909256, -0.029748715460300446, -0.04727117717266083, 0.009432462975382805, 0.0032228229101747274, -0.0022761195432394743, 0.07911618053913116, 0.09590785205364227, -0.03392023220658302, -0.10157288610935211, -0.04612588509917259, -0.05519051477313042, -0.0763966515660286, -0.06419658660888672, 0.02701686881482601, 0.023339394479990005, -0.04949278384447098, 0.04975369572639465, 0.019325144588947296, -0.022071661427617073, 0.02316923812031746, 0.05855663865804672, 0.08331549167633057, 0.06443486362695694, 0.0618649460375309, -0.09072074294090271, 0.004571937024593353, -0.03370436653494835, 0.020168185234069824, 0.01893685758113861, -0.022075146436691284, -0.01579483598470688, -0.00888479221612215, 0.0518454946577549, 0.06103210151195526, -0.005040997173637152, 0.03866516426205635, 0.04775715619325638, -0.005098165012896061, 0.10697205364704132, -0.03122367151081562, 0.028150606900453568, -0.06264465302228928, -0.01686645671725273, 0.0003810340422205627, -0.0011603519087657332, -0.01422402635216713, -0.004416994750499725, -0.018737582489848137, -0.03967452421784401, 0.005135706160217524, -0.05200684443116188, 0.04719393327832222, -0.03922226279973984, -0.04295855015516281, 0.0367027148604393, -0.019412236288189888, -0.005639926064759493, -0.05022089555859566, -0.009076802991330624, 0.01296071708202362, 0.003527319524437189, 0.0006120724137872458, 0.061149194836616516, 0.014614701271057129, 0.02609795704483986, -0.008701310493052006, -0.038502003997564316, 0.06181883439421654, 0.05242772027850151, -0.00585793424397707, -0.016577603295445442, 0.012528619728982449, -0.05562575161457062, -0.017132878303527832, 0.010530009865760803, 0.05790512636303902, -0.007477723062038422, 0.031939901411533356, -0.06135442107915878, 0.062371626496315, 0.009473279118537903, -0.054813459515571594, 0.06020858883857727, -0.010722780600190163, 0.03628451004624367, 0.039877161383628845, -0.0618399903178215, -0.04467541724443436, 0.018637821078300476, -0.025732651352882385, -0.006842218339443207, -0.012387141585350037, 0.01990581303834915, 0.015072524547576904, -0.014368072152137756, 0.023436667397618294, 0.025047119706869125, 0.020121045410633087, -0.02954977937042713, -0.028963632881641388, 0.05692248418927193, 0.026276180520653725, -0.01494528353214264, -0.022598154842853546, 0.052228156477212906, -0.04513905569911003, 0.025122132152318954, 0.05677828937768936, 0.01366966962814331, -0.051545798778533936, 0.010827972553670406, -0.007994397543370724, 0.05517928674817085, 0.02684183046221733, 0.0737631767988205, 0.011117998510599136, 0.03776497393846512, 0.09880749881267548, 0.08959797024726868, 0.10773931443691254, 0.10045002400875092, 0.018886039033532143, 0.03963839262723923, -0.04528682306408882, 0.05902254208922386, 0.061706412583589554, 0.04283557087182999, 0.05864977464079857, 0.023651262745261192, 0.02530631236732006, 0.1133115291595459, 0.12021474540233612, 0.18347296118736267, 0.24074700474739075, 0.25186848640441895, 0.20932836830615997, 0.18215076625347137, 0.040393076837062836, 0.011911212466657162, 0.005905723664909601, -0.028723634779453278, -0.041668280959129333, -0.03146837651729584, 0.009649130515754223, 0.0006115420255810022, -0.02946094423532486, 0.026989229023456573, 0.11809737980365753, 0.20481239259243011, 0.12536104023456573, 0.1832714080810547, 0.24163386225700378, 0.11701596528291702, 0.11156514286994934, 0.08002252131700516, -0.05045067146420479, -0.05664527416229248, 0.02567729353904724, -0.03833404555916786, 0.053669653832912445, -0.0160883367061615, 0.03685680404305458, 0.023742496967315674, 0.019819747656583786, 0.05654122307896614, 0.002830341923981905, -0.0016741177532821894, 0.023062141612172127, 0.10605499148368835, 0.029893020167946815, 0.06295747309923172, 0.03302673622965813, -0.03693061321973801, -0.02131112664937973, -0.01936786063015461, -0.051397692412137985, 0.05123775079846382, 0.022493865340948105, -0.07815675437450409, -0.06005831062793732, -0.006430153269320726, 0.046457499265670776, 0.03179826959967613, -0.06431442499160767, -0.030316539108753204, 0.04063470661640167, 0.03557315468788147, 0.06844959408044815, 0.06313808262348175, -0.039889927953481674, 0.058957260102033615, -0.03232952207326889, 0.023822782561182976, -0.06547585874795914, -0.07124584913253784, -0.08917997032403946, -0.050137292593717575, 0.06018729507923126, -0.02932344563305378, -0.022590285167098045, 0.01649894379079342, 0.03974227234721184, 0.022110754624009132, 0.0961126834154129, 0.06477072834968567, -0.04953381046652794, 0.04730167239904404, 0.016512930393218994, 0.019486747682094574, -0.047667182981967926, -0.09973616153001785, -0.05391398444771767, -0.00642773974686861, -0.028001904487609863, -0.13991403579711914, -0.13308961689472198, -0.06191135570406914, 0.03297501057386398, 0.0612393319606781, 0.06279052793979645, 0.016189927235245705, 0.059036873281002045, -0.044539716094732285, 0.035795532166957855, 0.03595796972513199, 0.032101839780807495, 0.029211467131972313, -0.005875376984477043, -0.07450436800718307, -0.17656850814819336, -0.15057389438152313, -0.03810812905430794, 0.019103368744254112, 0.05340944603085518, 0.09805964678525925, 0.06650709360837936, 0.06013211980462074, -0.05488468334078789, 0.005453980062156916, 0.009489921852946281, -0.017989106476306915, 0.17391450703144073, 0.21847526729106903, 0.06922262161970139, 0.05223102122545242, -0.05157016962766647, -0.12889724969863892, 0.08307286351919174, 0.20236437022686005, 0.1788570135831833, 0.13045985996723175, 0.046165451407432556, -0.010783188976347446, 0.05246082693338394, -0.05181843414902687, 0.06154134124517441, 0.008372328244149685, 0.16198407113552094, 0.25982561707496643, 0.281387060880661, 0.17744673788547516, 0.06111471354961395, 0.05421010032296181, 0.10862308740615845, 0.1702364981174469, 0.20862895250320435, 0.15619204938411713, 0.027167195454239845, 0.02147991582751274, 0.0423707477748394, -0.030745716765522957, -0.015768492594361305, 0.08836229890584946, 0.15373511612415314, 0.17388376593589783, 0.29819902777671814, 0.257599413394928, 0.14646285772323608, 0.1364733874797821, 0.1231648176908493, 0.08807718008756638, 0.029933173209428787, 0.016775108873844147, 0.077326200902462, -0.0350378155708313, -0.05845175310969353, 0.051859110593795776, 0.0038108567241579294, 0.05881023406982422, 0.04239199310541153, 0.01809014193713665, 0.11136011779308319, 0.08736569434404373, 0.05496821179986, 0.016948461532592773, 0.015783006325364113, 0.03179861605167389, -0.0671953484416008, -0.04717867448925972, 0.04303963482379913, -0.05021769925951958, -0.04029879346489906, 0.04858884960412979, -0.048933953046798706, 0.05462516471743584, -0.008900918066501617, 0.03410273417830467, -0.046534184366464615, 0.07098755985498428, -0.022438492625951767, 0.012173466384410858, 0.027877869084477425, 0.04509320855140686, 0.021219506859779358, -0.03624182567000389, 0.04075973853468895, -0.04935016855597496, -0.06028919667005539, 0.06143476814031601, 0.0368197038769722, -0.06053904443979263, -0.02585630863904953, -0.017017001286149025, 0.038630161434412, -0.05661744624376297, -0.0296535175293684, -0.03063281625509262, 0.05628659203648567, 0.05764241889119148, -0.06154988333582878, 0.04512811824679375, 0.007021280005574226, -0.036139845848083496, 0.04436539113521576, -0.04389166086912155, 0.04060980677604675, -0.05699139088392258, -0.04539715498685837, 0.03700384870171547, -0.028716813772916794, 0.03956366702914238, 0.03509088233113289, 0.059985969215631485, -0.01531095989048481, 0.051083557307720184, 0.008196130394935608, -0.015494853258132935, -0.04718238115310669, -0.052671536803245544, -0.009378433227539062, 0.03169407695531845, -0.02940301224589348, -0.018315313383936882, 0.05494838207960129, 0.0007751481025479734, -0.05443234369158745, 0.038789600133895874, -0.06305399537086487, 0.005800209939479828, -0.05911511555314064, -0.019002379849553108, 0.0617135614156723, -0.06159207224845886, 0.025030534714460373, -0.026600638404488564, 0.024876952171325684, -0.03821096569299698, 0.000241273723077029, 0.032385364174842834, -0.02729819342494011, -0.0573059543967247, 0.035578563809394836, -0.030638540163636208, -0.015845289453864098, -0.027926521375775337, 0.06011953577399254, -0.004804936237633228, 0.01257956214249134, 0.03813644126057625, -0.010745452716946602, -0.010282432660460472, -0.010606855154037476, 0.018016472458839417, -0.029321270063519478, 0.012747119180858135, 0.004275596234947443, -0.0007975372136570513, 0.10345256328582764, 0.06473218649625778, 0.07128249108791351, 0.07528859376907349, 0.1280921995639801, 0.01325185876339674, 0.043529313057661057, -0.029763467609882355, 0.009403908625245094, -0.0001797098811948672, -0.014762673527002335, 0.04818784072995186, 0.03855006396770477, 0.06907670944929123, -0.022737110033631325, -0.021683042868971825, -0.010394411161541939, 0.04122653603553772, 0.0683358684182167, 0.12441252171993256, 0.05861479043960571, 0.08345818519592285, 0.04501233994960785, -0.003976388834416866, -0.012030357494950294, -0.0611344650387764, -0.04862711951136589, 0.016286253929138184, -0.06169196963310242, 0.044331666082143784, -0.046089958399534225, -0.0761919915676117, -0.11337026953697205, -0.11208274215459824, -0.03197524696588516, 0.1887616068124771, 0.14004912972450256, -0.008993606083095074, -0.0009085173951461911, -0.09013926237821579, 0.006978530436754227, 0.03614729270339012, -0.022088350728154182, -0.030489584431052208, 0.06036558747291565, 0.06310375034809113, -0.005549603141844273, -0.030945174396038055, -0.088821180164814, -0.019649289548397064, 0.16170331835746765, 0.3141751289367676, 0.2489653080701828, 0.007586306426674128, -0.10245376080274582, -0.11600951850414276, -0.007760999258607626, 0.023054350167512894, 0.02670089155435562, -0.03763517737388611, -0.013924108818173409, 0.021845174953341484, -0.0584263950586319, -0.07501956820487976, -0.09772729873657227, 0.05625661462545395, 0.29937270283699036, 0.49103865027427673, 0.17917394638061523, 0.05827128514647484, -0.10921204835176468, -0.05868224799633026, -0.08964622020721436, 0.015463181771337986, 0.06086646020412445, 0.045946039259433746, -0.05096938833594322, 0.05674297362565994, -0.028426531702280045, -0.14710859954357147, -0.10852625221014023, -0.05708189308643341, 0.21654357016086578, 0.2943692207336426, 0.01953904516994953, 0.028226014226675034, -0.04779232665896416, -0.06569096446037292, 0.01607784628868103, -0.015355519019067287, -0.028989525511860847, 0.022358804941177368, 0.034441228955984116, 0.032035667449235916, -0.03109201416373253, -0.13998454809188843, -0.17498670518398285, -0.09826123714447021, 0.02212490886449814, 0.06426151096820831, -0.012766750529408455, 0.0842098593711853, 0.07456925511360168, 0.027557512745261192, -0.03550121933221817, -0.04043751209974289, 0.040010761469602585, -0.01362589094787836, 0.02307150326669216, -0.03182127699255943, -0.048153046518564224, -0.08310358971357346, -0.15541400015354156, -0.05444324389100075, 0.06714410334825516, 0.031434066593647, -0.06756072491407394, -0.002039784099906683, -0.024191532284021378, 0.027407828718423843, -0.06839631497859955, 0.004132537171244621, -0.056440867483615875, 0.0044654253870248795, 0.015939928591251373, -0.0283450148999691, 0.04474258050322533, -0.1122589036822319, -0.10901608318090439, -0.007526253815740347, 0.03585240989923477, -0.02624555677175522, 0.06913226842880249, -0.020595960319042206, 0.02830321341753006, -0.06678032130002975, -0.09040321409702301, 0.002146301092579961, 0.03620913624763489, 0.01956990920007229, 0.0590747594833374, 0.06834546476602554, 0.0004334744589868933, -0.0021541668102145195, 0.02398250624537468, 0.06757795065641403, 0.10875619202852249, 0.13583892583847046, 0.07974538207054138, -0.020596018061041832, -0.023116128519177437, -0.06940710544586182, 0.02378964237868786, 0.02359415590763092, -0.05446137860417366, 0.017330802977085114, 0.005881973076611757, -0.033300768584012985, 0.038330771028995514, 0.05651159957051277, 0.0784432515501976, 0.10082720965147018, 0.20792315900325775, 0.17339405417442322, 0.08741025626659393, -0.0254258681088686, -0.02012680470943451, -0.0015099935699254274, 0.045403365045785904, 0.05271024629473686, 0.04752824828028679, 0.03692512959241867, -0.021349988877773285, 0.005242680199444294, -0.03344132751226425, 0.012802407145500183, 0.07412625849246979, 0.07428651303052902, 0.011460230685770512, -0.02826651744544506, 0.00704294815659523, -0.019177934154868126, -0.005800507962703705, -0.003805140033364296, 0.05809233337640762, -0.035765815526247025, 0.03450058028101921, -0.020878799259662628, 0.01417626440525055, -0.048574693500995636, -0.008014831691980362, 0.05129941552877426, -0.050410740077495575, 0.042215555906295776, 0.015914831310510635, 0.006032590288668871, -0.022549808025360107, -0.004446954466402531, 0.020446334034204483, -0.018965695053339005, -0.04491262882947922, 0.0590013787150383, 0.024960286915302277, 0.02311287820339203, 0.018334858119487762, -0.05420374870300293, 0.007825613021850586, -0.03902311623096466, -0.0405886210501194, 0.0025498357135802507, 0.012382887303829193, 0.05435605347156525, -0.05009572207927704, -0.013613666407763958, -0.0313459187746048, 0.05541618913412094, -0.004216931760311127, -0.05479660630226135, -0.029297396540641785, -0.051658473908901215, -0.06092727184295654, 0.06107981503009796, 0.029119744896888733, -0.014759630896151066, 0.059696558862924576, -0.015614647418260574, 0.050058215856552124, -0.06068170815706253, -0.02369280345737934, 0.035752471536397934, -0.03003309853374958, 0.02605941705405712, 0.04934697970747948, 0.012425156310200691, 0.01845788210630417, -0.012955725193023682, -0.0064590307883918285, -0.035081516951322556, -0.05414687097072601, 0.046467047184705734, -0.0006844309973530471, 0.017364168539643288, -0.031745344400405884, 0.028681015595793724, -0.04261958599090576, 0.017229367047548294, 0.00455812644213438, -0.04612031579017639, -0.0019359205616638064, 0.0224141888320446, 0.014791488647460938, 0.03147681802511215, -0.0191937368363142, 0.047758668661117554, -0.029495026916265488, -0.04895773530006409, 0.04061279818415642, -0.05398799106478691, 0.050693660974502563, -0.06089082732796669, 0.022284548729658127, 0.013986704871058464, -0.00438647298142314, -0.058668944984674454, 0.016031181439757347, 0.04896070808172226, -0.027203917503356934, 0.019028348848223686, -0.049558110535144806, 0.0009763987036421895, -0.022322271019220352, -0.030079370364546776, 0.04535182937979698, -0.05382475256919861, 0.013755888678133488, -0.01965128630399704, -0.0009225721005350351, -0.026811042800545692, 0.056583937257528305, -0.035653479397296906, 0.0006158808246254921, -0.0602886788547039, 0.005047954618930817, 0.010179528035223484, -0.0014109017793089151, -0.01765805296599865, 0.04559360817074776, -0.04866618290543556, 0.029854219406843185, 0.03293425962328911, -0.014587749727070332, -0.014107780531048775, -0.03439464420080185, -0.021593639627099037, 0.01191630121320486, -0.025357387959957123, 0.015677183866500854, -0.005863986909389496, -0.015329867601394653, -0.045889489352703094, -0.0440998375415802, 0.04255563020706177, 0.018391674384474754, 0.020701341331005096, -0.05692250654101372, -0.05428846552968025, 0.00792370829731226, -0.04837028682231903, 0.059300005435943604, 0.04300137609243393, -0.04345075786113739, -0.02717018499970436, -0.02656221017241478, -0.0008435137569904327, 0.044806502759456635, -0.046061061322689056, 0.03144000470638275, 0.03733529523015022, -0.006358033511787653, -0.041686978191137314, -0.009452338330447674, -0.05465651676058769, 0.019529497250914574, 0.003642038209363818, -0.002570054493844509, -0.0649254098534584, 0.012545562349259853, 0.05855700373649597, -0.010397769510746002, -0.0021206308156251907, 0.006242663133889437, 0.013375654816627502, 0.004597288556396961, 0.05916360020637512, 0.0026437377091497183, -0.030144641175866127, -0.005188566632568836, -0.055796004831790924, -0.05834290012717247, -0.03217492625117302, -0.025335140526294708, -0.06432906538248062, 0.03442277014255524, -0.012686382979154587, 0.012107821181416512, -0.05724368244409561, -0.038563769310712814, -0.020863590762019157, -0.007448408752679825, 0.0038141864351928234, 0.029640069231390953, 0.03598272055387497, -0.0053479853086173534, -0.004849806893616915, 0.018525952473282814, -0.053607743233442307, 0.033383436501026154, -0.019878603518009186, 0.0315769724547863, 0.011217212304472923, 0.022470751777291298, -0.013582583516836166, 0.029195047914981842, -0.04742857813835144, -0.021469682455062866, 0.0034255487844347954, -0.01947595737874508, -0.009179058484733105, -0.05027288198471069, -0.05929797142744064, 0.006074734032154083, 0.028777841478586197, 0.035739604383707047, -0.0245964415371418, -0.059240080416202545, -0.058276478201150894, -0.05286708101630211, 0.028576960787177086, -0.041328102350234985, 0.008217588067054749, -0.037805259227752686, -0.005567218642681837, -0.0036358044017106295, 0.007631310727447271, 0.006830649450421333, 0.017165224999189377, 0.044196102768182755, 0.05474844574928284, -0.055546779185533524, 0.05310990288853645, -0.02312428504228592, -0.06157480180263519, 0.03171433508396149, -0.04495558887720108, -0.05532548949122429, 0.04384160041809082, -0.0022977162152528763, -0.011407136917114258, -0.015887688845396042, -0.03725859150290489, 0.041714008897542953, -0.017810767516493797, -0.0640491172671318, -0.025123775005340576, 0.02419569157063961, 0.02383684180676937, 0.006510290317237377, 0.049990151077508926, 0.04478154331445694, 0.05188310518860817, -0.009515124373137951, 0.0060437023639678955, 0.052594173699617386, 0.05809904634952545, 0.04201214388012886, 0.011865020729601383, -0.02007353864610195, -0.01740286871790886, 0.05759846046566963, 0.012538161128759384, -0.047524597495794296, 0.01868383027613163, 0.04502502828836441, -0.015868080779910088, -0.04593773931264877, -0.021243654191493988, -0.051541075110435486, -0.005688518285751343, 0.054738279432058334, 0.0313415490090847, -0.050995927304029465, -0.05864955484867096, 0.03840649873018265, -0.022335121408104897, -0.04969875514507294, 0.05492356792092323, -0.033351510763168335, -0.030018135905265808, 0.017637398093938828, -0.02654084376990795, 0.05208910256624222, -0.004054450895637274, -0.0417105033993721, 0.04494275152683258, -0.0007966682314872742, -0.04560486227273941, 0.01921837031841278, 0.003222748637199402, 0.046338096261024475, -0.00010099129576701671, -0.015972398221492767, 0.06154728680849075, -0.005445048213005066, -0.055980756878852844, 0.006347544491291046, -0.009896591305732727, 0.011358313262462616, 0.059076227247714996, -0.015561938285827637, 0.02201133966445923, -0.04867766052484512, -0.059320710599422455, -0.020403355360031128, 0.030968323349952698, -0.018096119165420532, 0.052068617194890976, 0.00197317055426538, 0.034728746861219406, -0.03579246997833252, -0.0018474726239219308, 0.009861312806606293, -0.05863089859485626, -0.0595565065741539, -0.01278606802225113, 0.020310446619987488, -0.013389639556407928, -0.0329049676656723, -0.014158396050333977, 0.006809848826378584, -0.012518790550529957, 0.021099593490362167, -0.055997032672166824, -0.059705909341573715, 0.03844837844371796, 0.012268840335309505, 0.03723372519016266, 0.028257593512535095, 0.011500407010316849, -0.058173712342977524, 0.017371054738759995, 0.021527037024497986, -0.016939334571361542, 0.029861265793442726, -0.0546545572578907, 0.04029170796275139, -0.06530003994703293, -0.006275832653045654, 0.02125716768205166, 0.052419692277908325, -0.03504496067762375, 0.016290482133626938, -0.041378412395715714, 0.02329384535551071, 0.034583136439323425, 0.0035090181045234203, 0.059963151812553406, -0.05355103313922882, 0.04737386852502823, 0.009603452868759632, 0.03848416730761528, -0.032617758959531784, 0.04391924664378166, -0.03981374576687813, 0.05680856853723526, -0.026668600738048553, -0.044330354779958725, -0.006762961857020855, -0.010381422005593777, -0.0006874405080452561, -0.03207312896847725, -0.011600306257605553, -0.04009116068482399, -0.01739351823925972, 0.009785672649741173, -0.058254510164260864, 0.023813430219888687, 0.0142966965213418, -0.058750540018081665, -0.030535049736499786, 0.033238399773836136, 0.025798114016652107, -0.03366776183247566, 0.05319850519299507, 0.012010810896754265, 0.05809933692216873, -0.02728091925382614, -0.04067038372159004, 0.022003192454576492, -0.04878328740596771, -0.02162005752325058, 0.04871135205030441, 0.01218795869499445, -0.031003817915916443, 0.050004780292510986, -0.0016971781151369214, -0.028786122798919678, -0.027144649997353554, -0.0347585491836071, 0.05016477778553963, -0.016271471977233887, 0.03740530461072922, -0.01969606801867485, -0.04624108597636223, 0.05745028331875801, -0.036402683705091476, -0.0007236812962219119, 0.018787406384944916, -0.030515732243657112, 0.02878478169441223, 0.09792206436395645, 0.05228625610470772, -0.011992912739515305, 0.03140886127948761, -0.048767682164907455, -0.05360570549964905, -0.00904869195073843, 0.020804299041628838, -0.015065348707139492, 0.03124714270234108, 0.029828423634171486, 0.0416359007358551, 0.04635095223784447, 0.05401953309774399, 0.023005632683634758, -0.0007172610494308174, 0.03164898231625557, -0.022221267223358154, -0.07193387299776077, 0.0045013874769210815, 0.002021858701482415, -0.05765906348824501, -0.05250370502471924, 0.022694380953907967, -0.015944143757224083, 0.03988569974899292, 0.007729778531938791, 0.01564551331102848, 0.0294997226446867, 0.03490631654858589, 0.053140588104724884, 0.02388123795390129, 0.0762990266084671, 0.007787343580275774, -0.05546846240758896, 0.005370205268263817, -0.03623009845614433, 0.015880974009633064, 0.00036740838550031185, -0.01349641289561987, 0.07026179879903793, 0.057280540466308594, 0.057077206671237946, -0.00253724935464561, -0.056169141083955765, 0.038568008691072464, -0.004051805008202791, 0.05701187625527382, 0.015204065479338169, 0.027858572080731392, -0.05792465806007385, 0.0359138585627079, 0.003722755005583167, -0.042658593505620956, -0.014186739921569824, 0.04091458022594452, 0.0127106299623847, 0.08023281395435333, -0.05531125143170357, 0.03331884741783142, -0.04038045182824135, -0.03927649185061455, 0.02184264175593853, 0.04742772877216339, 0.07345588505268097, 0.00848775077611208, 0.0401684045791626, -0.03526143729686737, -0.033563315868377686, -0.04280988126993179, -0.043447889387607574, 0.008426518179476261, -0.0024085291661322117, -0.0043388730846345425, 0.023640679195523262, -0.022081106901168823, -0.04317210987210274, -0.030430393293499947, 0.05345986410975456, -0.033898528665304184, 0.07004732638597488, -0.006161562632769346, -0.035502105951309204, -0.025477051734924316, 0.05199253559112549, -0.013615368865430355, 0.01764761470258236, 0.06851675361394882, 0.04010089859366417, 0.04381689056754112, 0.01703706569969654, -0.05907980352640152, 0.060573287308216095, 0.012730900198221207, -0.018979689106345177, 0.02665444277226925, -0.020853938534855843, 0.05252418667078018, -0.011774931102991104, 0.01412843819707632, 0.023302435874938965, 0.060128308832645416, -0.02370237000286579, 0.03333462402224541, -0.05870945006608963, -0.024074051529169083, -0.04086368530988693, 0.02239837311208248, 0.028698019683361053, -0.027407655492424965, 0.05686365067958832, 0.03018525429069996, -0.04441843926906586, -0.011322367005050182, 0.023852622136473656, -0.020744359120726585, 0.0007816592697054148, 0.062018126249313354, -0.0435849204659462, 0.0351564921438694, 0.016655925661325455, 0.005338975228369236, -0.0357842780649662, 0.01754004694521427, 0.012552812695503235, -0.06158292666077614, -0.05668645352125168, 0.04275662451982498, 0.003499147715047002, -0.01167586911469698, 0.0016994541510939598, 0.021350950002670288, 0.009725682437419891, 0.014914455823600292, -0.055926572531461716, -0.044704869389534, 0.006014256738126278, -0.006144432350993156, 0.05625077709555626, 0.04076303541660309, 0.04720111936330795, -0.03373744338750839, -0.03747086226940155, -0.0029795358423143625, -0.060926973819732666, 0.018928388133645058, -0.010530497878789902, -0.05128948390483856, -0.01636265031993389, 0.01055135764181614, 0.0338190421462059, 0.0392628014087677, -0.0353405624628067, -0.009858357720077038, 0.019342757761478424, -0.021791376173496246, 0.06228983402252197, 0.05266895145177841, -0.006416738033294678, -0.010669603943824768, 0.01490685436874628, -0.029552672058343887, -0.0056439354084432125, -0.005636217072606087, 0.028222305700182915, 0.05754709243774414, -0.051135044544935226, -0.027210086584091187, -0.05452744662761688, 0.023532480001449585, 0.02829509973526001, 0.02584356814622879, 0.05126865953207016, 0.018817858770489693, -0.037484463304281235, -0.06248852238059044, -0.051226500421762466, -0.05411664396524429, 0.042647529393434525, -0.028566183522343636, 0.009911930188536644, -0.06103154644370079, 0.0005794448079541326, -0.0013148598372936249, -0.020073797553777695, 0.03422712907195091, -0.046471111476421356, 0.03500232845544815, 0.05818779021501541, 0.013213896192610264, -0.05592682212591171, 0.03465082496404648, -0.022652961313724518, 0.023792821913957596, 0.04518207162618637, 0.003360557835549116, 0.01740117557346821, 0.028182359412312508, 0.010437027551233768, -0.06310887634754181, 0.041528988629579544, -0.007424463517963886, 0.06295488774776459, 0.03694773092865944, -0.0005526329041458666, -0.04754755645990372, 0.010551277548074722, 0.008765360340476036, 0.07234886288642883, 0.0667366161942482, 0.04269775375723839, 0.05480869859457016, 0.026298431679606438, 0.10714592784643173, 0.050632305443286896, 0.044565144926309586, 0.015026994049549103, -0.044415052980184555, 0.052595168352127075, 0.054635871201753616, -0.01768689788877964, 0.031521521508693695, 0.01610952988266945, -0.010848826728761196, 0.016698822379112244, 0.09715060889720917, 0.1492355614900589, 0.09766680747270584, 0.009219089522957802, 0.07275178283452988, 0.03925057500600815, 0.11958222091197968, 0.020435407757759094, 0.045353081077337265, 0.06011297553777695, -0.0034183477982878685, 0.0361902080476284, -0.03680071607232094, -0.015455235727131367, 0.04567345976829529, 0.10156998038291931, 0.05741646885871887, 0.08578949421644211, 0.09150564670562744, -0.01783154532313347, 0.04077127203345299, 0.16420243680477142, 0.06051793321967125, 0.03095484897494316, -0.03076937422156334, -0.013817550614476204, -0.008915035054087639, -0.024815987795591354, 0.01379799097776413, -0.023584797978401184, 0.001966663170605898, 0.040423810482025146, 0.22459368407726288, 0.23273468017578125, 0.004874745849519968, -0.12319457530975342, 0.07224410772323608, 0.18725591897964478, 0.14803484082221985, 0.07059779763221741, 0.09131377190351486, -0.039341602474451065, 0.007671522442251444, 0.008966733701527119, 0.03198428824543953, 0.030915120616555214, 0.03783047944307327, 0.14331825077533722, 0.2632128894329071, 0.23196056485176086, 0.07054678350687027, -0.04508430138230324, 0.10378054529428482, 0.12014935910701752, 0.045940667390823364, 0.11607266217470169, 0.05654600262641907, 0.013256239704787731, -0.0028614159673452377, 0.03844920173287392, 0.051031555980443954, 0.051746707409620285, 0.13226553797721863, 0.21348555386066437, 0.1794738620519638, 0.14466510713100433, -0.03545767813920975, -0.06664224714040756, 0.1833980828523636, 0.20049740374088287, 0.15872064232826233, 0.03103056736290455, 0.050834428519010544, 0.057930778712034225, 0.044385652989149094, -0.026316123083233833, 0.04795133322477341, -0.038563668727874756, 0.0954655185341835, 0.06500615924596786, 0.10318101942539215, 0.0976908877491951, -0.06054185703396797, -0.09624768048524857, 0.1604178100824356, 0.17044247686862946, 0.1422097086906433, 0.05527340993285179, -0.00861105602234602, 0.04385357350111008, -0.014741385355591774, -0.04530330374836922, -0.018191467970609665, 0.005006400402635336, 0.050211887806653976, 0.026431461796164513, -0.04520934820175171, -0.02821982651948929, -0.16982266306877136, -0.12154783308506012, 0.16437530517578125, 0.1827177107334137, 0.1250879168510437, 0.05438076704740524, -0.0458916537463665, -0.012503870762884617, 0.03536464273929596, -0.0459001399576664, -0.05158112943172455, 0.008003398776054382, 0.08319509029388428, 0.007562615908682346, -0.02674218639731407, -0.009774166159331799, -0.03654770180583, 0.06973755359649658, 0.1372671276330948, 0.09457511454820633, 0.03479687124490738, 0.013864617794752121, -0.0540119893848896, -0.03372950851917267, -0.04012729972600937, -0.002990721957758069, 0.03861735016107559, -0.0033573168329894543, -0.026417329907417297, 0.037556614726781845, -0.0007459408370777965, 0.02099677547812462, 0.11804834753274918, 0.0993533656001091, 0.1198970228433609, 0.05685902014374733, 0.04443170502781868, 0.04390289634466171, 0.02314797043800354, 0.0404021330177784, -0.025767577812075615, 0.030566751956939697, 0.03427623584866524, -0.01294251624494791, -0.007228660862892866, 9.661322110332549e-05, 0.001989109441637993, 0.07710333913564682, 0.17803920805454254, 0.10156439989805222, 0.10338148474693298, 0.03469870239496231, 0.0667867437005043, -0.058007631450891495, 0.05021262168884277, -0.023927787318825722, 0.02716382034122944, -0.02176167070865631, 0.005442623980343342, -0.04095562919974327, 0.042356934398412704, 0.06033797934651375, 0.07744038850069046, -0.010266697965562344, 0.018347663804888725, -0.03137523680925369, -0.03835441172122955, 0.04569514840841293, -0.045484911650419235, 0.004529472906142473, 0.042963650077581406, -0.027234263718128204, -0.03082822635769844, -0.04898621886968613, 0.039313994348049164, -0.031210100278258324, 0.05029105022549629, -0.04511471092700958, 0.03034297749400139, 0.04207892715930939, 0.04641997069120407, -0.056354355067014694, 0.007328969892114401, -0.03498619794845581, 0.027164336293935776, 0.007046405225992203, -0.04212289676070213, -0.02042274922132492, 0.050455041229724884, 0.02256307750940323, -0.02471253275871277, 0.012186199426651001, 0.014365807175636292, 0.042229052633047104, 0.026110278442502022, -0.008107278496026993, 0.04916980862617493, -0.02482457645237446, -0.04669440910220146, -0.026026809588074684, -0.030458487570285797, -0.022380538284778595, 0.02263426035642624, 0.003913603723049164, 0.02996828407049179, -0.0064172521233558655, 0.005321979057043791, 0.01945224218070507, 0.04896441102027893, -4.874766091234051e-05, 0.00547929760068655, 0.0515897162258625, 0.05996301397681236, 0.027417819947004318, 0.047287773340940475, 0.022695228457450867, 0.01424043532460928, -0.038483601063489914, -0.015959003940224648, -0.05814681574702263, 0.06157096475362778, -0.011665205471217632, 0.018095288425683975, -0.032157447189092636, -0.02528925985097885, 0.011256290599703789, 0.02707221359014511, 0.06513317674398422, 0.03567542880773544, 0.021628236398100853, 0.09502102434635162, 0.06570891290903091, -0.025129595771431923, 0.031054195016622543, -0.05259096994996071, 0.04908714070916176, 0.009937301278114319, 0.04904208332300186, 0.040621593594551086, -0.06291843950748444, -0.028724748641252518, -0.01185506209731102, 0.014055831357836723, 0.02343755029141903, -0.037202853709459305, 0.06356941163539886, 0.12137703597545624, 0.03702807426452637, -0.03833746165037155, -0.009388436563313007, -0.017832912504673004, -0.02506781741976738, 0.014333664439618587, -0.026331039145588875, 0.0588420145213604, -0.0005423093680292368, 0.01992892101407051, -0.01968696340918541, -0.01297778356820345, 0.035197913646698, 0.031992245465517044, 0.11610075831413269, 0.0389418751001358, 0.06614178419113159, 0.07726482301950455, 0.03941655531525612, 0.0574781633913517, 0.002682930091395974, 0.03122393600642681, -0.04183996468782425, 0.0035276112612336874, -0.014205524697899818, 0.04810731112957001, -0.04295232146978378, 0.07924188673496246, 0.043069999665021896, 0.10558168590068817, 0.11185602843761444, 0.038312625139951706, -0.021342620253562927, 0.06486130505800247, 0.014759574085474014, 0.03573494404554367, 0.04240870475769043, 0.019366852939128876, 0.04873806983232498, -0.015107395127415657, 0.03888722136616707, 0.006707001943141222, 0.05333603918552399, 0.0269494466483593, 0.05249766632914543, -0.06704803556203842, -0.0915190577507019, -0.092664435505867, 0.02145444042980671, 0.023907789960503578, 0.04885680601000786, 0.0511813648045063, -0.014372418634593487, 0.012730157002806664, 0.006591285113245249, 0.04437897354364395, 0.04670773819088936, -0.031023630872368813, 0.01185748353600502, -0.02143315225839615, -0.03663244470953941, -0.09268585592508316, -0.06513190269470215, -0.08585134893655777, -0.062331728637218475, 0.06494119018316269, 0.03267984837293625, 0.0017187277553603053, 0.05022517964243889, -0.027116116136312485, 0.04156496375799179, -0.013510200195014477, -0.005546781234443188, -0.008572753518819809, 0.0624038428068161, 0.0719299465417862, -0.007061486132442951, -0.06205359473824501, -0.05795674026012421, -0.05808978155255318, -0.008181971497833729, -0.02331872656941414, 0.0784241259098053, 0.04352292791008949, 0.05186920613050461, -0.02589067630469799, -0.034879133105278015, 0.0028359543066471815, 0.020795272663235664, 0.06110801175236702, 0.13124999403953552, 0.15316978096961975, 0.04805829003453255, 0.104566290974617, 0.10907084494829178, -0.021128350868821144, -0.02536706067621708, -0.04796845465898514, -0.00955930259078741, 0.038699083030223846, 0.011087330058217049, -0.012297783978283405, -0.034123267978429794, 0.05291521176695824, -0.053119078278541565, 0.0934591293334961, 0.14682574570178986, 0.16570909321308136, 0.10412385314702988, 0.1129428967833519, 0.17342908680438995, -0.012196234427392483, 0.0540323369204998, 0.004210325889289379, 0.03682396933436394, -0.008289880119264126, 0.013991409912705421, 0.020966118201613426, -0.04450235515832901, 0.049313489347696304, 0.041652243584394455, -0.016465025022625923, 0.0946822464466095, 0.16881795227527618, 0.10819298028945923, 0.16160643100738525, 0.03446853160858154, 0.04866115003824234, 0.0241649579256773, 0.07598576694726944, 0.018780417740345, 0.0615227185189724, 0.04112230986356735, -0.04677718132734299, 0.040266185998916626, 0.0021086796186864376, 0.03877422586083412, -0.0612027533352375, 0.010272837243974209, 0.04866272583603859, 0.06573282182216644, -0.005487075541168451, -0.027760734781622887, -0.046362102031707764, -0.02360394597053528, 0.03893714398145676, 0.04087529331445694, -0.01884104125201702, 0.020487217232584953, 0.04810900241136551, -0.053374841809272766, 0.03722050040960312, -0.011959141120314598, -0.005312206689268351, -0.06636304408311844, -0.09149395674467087, 0.02255523018538952, 0.020285382866859436, -0.09123576432466507, 0.007978257723152637, 0.030232928693294525, 0.060494206845760345, -0.01818281225860119, -0.016095386818051338, -0.02658817172050476, 0.00017385258979629725, 0.036478251218795776, -0.05668798089027405, 0.04373624920845032, -0.04974953457713127, -0.018782583996653557, -0.0009800840634852648, -0.07652080059051514, 0.044477153569459915, -0.06879785656929016, 0.03074316866695881, 0.055392567068338394, 0.026796871796250343, 0.03163934871554375, 0.017053082585334778, -0.045405879616737366, -0.020937062799930573, -0.05177116394042969, -0.051693543791770935, 0.047971177846193314, -0.05330069363117218, 0.006593781057745218, -0.04237854480743408, 0.02213972434401512, -0.0232436154037714, 0.04521217942237854, -0.01787608489394188, -0.014603188261389732, 0.05692015588283539, 0.0038112348411232233, 0.047690700739622116, 0.039518386125564575, -0.0308852419257164, 0.030143573880195618, -0.010356493294239044, 0.017323292791843414, -0.052137598395347595, 0.05354559049010277, -0.0005363760865293443, 0.05887451022863388, 0.04699091613292694, -0.02876051887869835, 0.03797468915581703, -0.014497009105980396, -0.043256886303424835, -0.04015054553747177, -0.061526037752628326, 0.01484692096710205, -0.041040338575839996, -0.04806175082921982, -0.0160013809800148, 0.03051905892789364, 0.028645271435379982, 0.03511325269937515, -0.05470289662480354, 0.04920201376080513, -0.04332685470581055, 0.0655706524848938, 0.06347820162773132, 0.03930825740098953, -0.01438048854470253, -0.03929279372096062, 0.01393208373337984, 0.04584571346640587, -0.025950714945793152, 0.05010600760579109, 0.010499069467186928, -0.05429192632436752, 0.021557675674557686, 0.06164989992976189, 0.05448238551616669, -0.004923287779092789, 0.0803164467215538, 0.023744594305753708, -0.02298564463853836, -0.00836263969540596, -0.012901694513857365, 0.011129607446491718, -0.05854068696498871, -0.014235422015190125, 0.03648725152015686, -0.0409335158765316, 0.03337378427386284, 0.05906058847904205, 0.06419310718774796, 0.012442952021956444, -0.003155721351504326, 0.06073174625635147, 0.058440737426280975, 0.021957386285066605, -0.034760598093271255, -0.009901406243443489, -0.04278065264225006, 0.019936777651309967, -0.043960969895124435, 0.052904147654771805, 0.05859318748116493, -0.025654742494225502, -0.006347417365759611, -0.058322761207818985, -0.03144414722919464, 0.030124584212899208, 0.016183365136384964, 0.03603050485253334, 0.05305599048733711, -0.03380610793828964, 0.0278963353484869, 0.015561945736408234, 0.059936653822660446, -0.037178825587034225, 0.05078506842255592, 0.029177581891417503, -0.013565362431108952, -0.05403558164834976, -0.0053972480818629265, 0.04489630088210106, -0.011157437227666378, -0.014442717656493187, -0.027160510420799255, -0.04701855778694153, -0.0500655360519886, 0.00590985082089901, -0.024488279595971107, -0.00667038606479764, -0.06293074786663055, 0.006880745757371187, -0.026740001514554024, 0.0035169131588190794, 0.01468200795352459, -0.02996186912059784, 0.015534552745521069, 0.003993477206677198, -0.05569763109087944, 0.04445695877075195, 0.027948567643761635, -0.04817766323685646, -0.06424617022275925, -0.009080398827791214, -0.017160266637802124, 0.013893773779273033, -0.021523363888263702, 0.011356545612215996, -0.056484103202819824, 0.0373828262090683, 0.030926678329706192, 0.04409220442175865, 0.06119454279541969, 0.05296345427632332, -0.07426556944847107, -0.07723009586334229, -0.02641015313565731, -0.09119390696287155, -0.037262871861457825, -0.04199527949094772, 0.03444334864616394, 0.06585924327373505, -0.01834440790116787, -0.01012512482702732, -0.05024813115596771, -0.01277557760477066, 0.037049368023872375, -0.021908411756157875, -0.007857188582420349, -0.03422476723790169, -0.06500936299562454, 0.026717841625213623, 0.011437062174081802, -0.04787204787135124, 0.05248449370265007, 0.01533464528620243, 0.09075331687927246, 0.060233138501644135, 0.00602766452357173, -0.06472934782505035, 0.04341898858547211, -0.034312792122364044, -0.02639315091073513, -0.05311974510550499, 0.03250894695520401, 0.04844648391008377, 0.043368685990571976, -0.022044235840439796, -0.0037042004987597466, 0.0945076048374176, 0.15443430840969086, 0.06625942885875702, 0.013531703501939774, -0.006559049244970083, -0.03387587517499924, -0.04287539795041084, -0.02315397374331951, -0.05321739614009857, 0.05081310123205185, -0.051103394478559494, -0.05326508730649948, 0.026295039802789688, 0.054499104619026184, 0.06305409967899323, 0.03668990358710289, 0.06673748046159744, 0.050860852003097534, 0.07557947188615799, 0.07653462886810303, -0.020485155284404755, -0.0028708758763968945, 0.027546031400561333, 0.06564094126224518, -0.02464287355542183, -0.009908808395266533, -0.012930533848702908, 0.05089380592107773, 0.037119753658771515, 0.018605565652251244, 0.07726393640041351, -0.011120372451841831, 0.056288089603185654, 0.07141359150409698, 0.06073427572846413, 0.0012697827769443393, -0.03438449651002884, 0.059914443641901016, -0.016960784792900085, -0.012600685469806194, 0.05741497129201889, -0.048275161534547806, -0.0444488488137722, 0.016697879880666733, 0.006082618143409491, 0.013363136909902096, -0.0058180117048323154, 0.05512315779924393, 0.03527459874749184, -0.007298025768250227, -0.03064103052020073, -0.046713314950466156, 0.050425708293914795, 0.037778422236442566, 0.003678998677060008, 0.03681204095482826, -0.01734761707484722, -0.039666540920734406, -0.01585511863231659, 0.020026104524731636, -0.008978620171546936, -0.060646794736385345, -0.03824891895055771, 0.02792174369096756, -0.03938327357172966, -0.05080139636993408, -0.04279037192463875, -0.01045600138604641, 0.009549341164529324, 0.0023670063819736242, 0.006676207296550274, -0.04926298186182976, -0.004214032553136349, -0.041925203055143356, 0.03926854580640793, -0.03393010422587395, 0.021087879315018654, -0.052398987114429474, 0.052697449922561646, -0.050890032202005386, -0.04191216081380844, -0.04851655662059784, -0.03003781847655773, -0.05438491702079773, -0.053106728941202164, 0.05190910026431084, 0.05576936528086662, 0.026131607592105865, -0.02233542688190937, -0.02135719172656536, -0.008073963224887848, -6.970018148422241e-05, 0.027305271476507187, 0.05503960698843002, -0.043106548488140106, -0.022706065326929092, 0.02311582863330841, 0.008268173784017563, -0.011453068815171719, 0.01830199547111988, 0.02881244383752346, -0.02334684506058693, -0.021546922624111176, -0.04677700996398926, -0.01284230500459671, -0.029950961470603943, 0.019543588161468506, -0.010138459503650665, -0.024290643632411957, -0.011103913187980652, -0.037888508290052414, 0.05083015561103821, -0.06210596114397049, -0.016753368079662323, 0.006927797105163336, 0.021176721900701523, -0.031054459512233734, 0.04164523631334305, -0.021126240491867065, 0.028929442167282104, -0.04444333165884018, -0.04973341524600983, -0.016446806490421295, -0.053022515028715134, -0.01207369938492775, 0.012578289024531841, 0.023429466411471367, -0.05319228395819664, -0.020068878307938576, 0.0018068988574668765, -0.015702957287430763, -0.003970658406615257, 0.05027757212519646, 0.010802578181028366, -0.022797413170337677, -0.006482824683189392, -0.005919219460338354, 0.0051160529255867004, 0.06162455677986145, 0.05918507277965546, 0.05137144401669502, 0.009587732143700123, -0.03489803522825241, 0.03758865222334862, 0.07567129284143448, 0.11163228750228882, 0.05567760393023491, 0.06779978424310684, 0.04933563619852066, 0.043209224939346313, 0.011735164560377598, -0.05136258527636528, -0.0023764236830174923, -0.033461425453424454, 0.053756073117256165, -0.0019583278335630894, 0.0022205894347280264, -0.017874782904982567, 0.05942614749073982, 0.0036882401909679174, 0.07736781239509583, 0.043033432215452194, 0.06745628267526627, 0.06153487414121628, 0.08699876070022583, -0.0009760071407072246, -0.008672967553138733, 0.044724851846694946, 0.02239612303674221, 0.015503205358982086, 0.038410574197769165, 0.0037345446180552244, -0.04936748743057251, 0.04804130271077156, 0.00030142502509988844, 0.052451152354478836, 0.07006534934043884, 0.024487946182489395, 0.028998933732509613, 0.07079077512025833, 0.0016979712527245283, -0.049404390156269073, -0.062063220888376236, -0.06682319194078445, -0.001567602390423417, 0.04951358959078789, -0.05314627289772034, 0.05959367752075195, 0.04428230598568916, 0.062044043093919754, 0.03951013833284378, -0.10024424642324448, -0.07898291945457458, 0.020272063091397285, 0.10422894358634949, 0.03476901352405548, 0.033041831105947495, -0.03970158100128174, -0.01756851002573967, -0.00966799259185791, -0.014638286083936691, -0.02825537696480751, -0.06143559515476227, 0.006572657264769077, -0.04321078956127167, -0.06655748188495636, -0.02128208614885807, -0.12241142243146896, -0.05622819438576698, -0.0011982861906290054, 0.12126713246107101, 0.07738129794597626, 0.0424937941133976, -0.06257089227437973, -0.02261994406580925, -0.035487882792949677, 0.05060754716396332, 0.0170302614569664, -0.036506135016679764, -0.05337256193161011, -0.055216431617736816, -0.026392823085188866, -0.07222118973731995, -0.13103260099887848, -0.10408328473567963, 0.08153267949819565, 0.2644212543964386, 0.027531705796718597, -0.027997804805636406, -0.027062050998210907, -0.11144154518842697, -0.0881781280040741, -0.056648608297109604, 0.05842224881052971, 0.04693794995546341, 0.0034028964582830667, 0.0022998196072876453, 0.007687668781727552, -0.04669196531176567, -0.13047578930854797, -0.02285401150584221, 0.17637629806995392, 0.2322884202003479, 0.08165676146745682, 0.049091748893260956, -0.09387553483247757, -0.08299227058887482, -0.029061630368232727, -0.05665842816233635, -0.021023638546466827, -0.026109851896762848, -0.02002853900194168, 0.03482327610254288, -0.010337473824620247, -0.05904514342546463, -0.0408506840467453, -0.0033214385621249676, 0.16866376996040344, 0.11919847130775452, 0.03183969855308533, -0.0021045904140919447, 0.03814879059791565, -0.0016299280105158687, -0.06023331731557846, -0.048848409205675125, -0.029506538063287735, -0.001702899462543428, 0.0558457113802433, 0.025855327025055885, -0.048332348465919495, -0.002453598892316222, -0.05540642514824867, 0.10240533947944641, 0.19289283454418182, 0.1399746835231781, 0.05199635401368141, -0.045586567372083664, 0.05243028700351715, -0.018394710496068, 0.013076294213533401, -0.05344066023826599, -0.016959037631750107, -0.00587488291785121, 0.004114105831831694, -0.01541882287710905, 0.03701668232679367, 0.02873075194656849, 0.08360913395881653, 0.12913529574871063, 0.056921668350696564, -0.006105967331677675, 0.004259028472006321, 0.06463082879781723, 0.0006054613622836769, 0.03315337374806404, 0.017032263800501823, -0.01707829348742962, 0.02529252879321575, -0.025229673832654953, 0.03298766538500786, 0.05477876588702202, 0.061815161257982254, 0.08142586052417755, 0.09640473127365112, 0.0034879911690950394, 0.04664838686585426, 0.061349496245384216, -0.013564207591116428, 0.02336149476468563, -0.026699362322688103, 0.08190745115280151, 0.07015422731637955, -0.042354799807071686, 0.025685623288154602, 0.02474040538072586, -0.05892730876803398, 0.010269783437252045, -0.010362041182816029, 0.061091918498277664, 0.055186279118061066, 0.004737824201583862, -0.032274797558784485, 0.061051562428474426, 0.05132639780640602, -0.009087868966162205, -0.016163354739546776, -0.0036994307301938534, -0.005963337607681751, 0.0314134918153286, 0.020095229148864746, -0.032758407294750214, 0.04133838042616844, 0.04937511682510376, 0.008857333101332188, -0.04587026685476303, 0.053101547062397, 0.03613235801458359, -0.03939118608832359, 0.00012088083167327568, -0.05120208114385605, 0.03633779287338257, -0.008510873652994633, 0.05199705436825752, -0.05010659992694855, -0.026554791256785393, 0.024742990732192993, -0.045640625059604645, 0.05241458863019943, -0.023621169850230217, -0.019546305760741234, -0.0025427723303437233, -0.02211308479309082, 0.03130171447992325, 0.027503468096256256, 0.02069683000445366, -0.06243899092078209, -0.04915376007556915, -0.06203022226691246, 0.003499644808471203, -0.056302011013031006, -0.03465397655963898, 0.05139787495136261, 0.03305758535861969, 0.029844112694263458, 0.0510641410946846, -0.011896014213562012, -0.05722208693623543, -0.012183275073766708, 0.04551951587200165, -0.04626283049583435, -0.0010851708939298987, 0.03500347211956978, 0.040127482265233994, 0.01421983540058136, 0.010984286665916443, 0.043018631637096405, -0.05174483358860016, -0.0415666401386261, -0.05533453822135925, -0.03589743375778198, -0.059934090822935104, 0.05650000274181366, 0.024926112964749336, -0.017608873546123505, -0.04257437586784363, 0.04821981117129326, -0.04148336127400398, 0.020280901342630386, -0.008976340293884277, -0.05636804178357124, -0.018681583926081657, 0.030465219169855118, -0.022067086771130562, 0.00021023303270339966, 0.05217205360531807, 0.027613339945673943, 0.038946136832237244, -0.056783128529787064, 0.00670369528234005, 0.01638811081647873, -0.048698149621486664, -0.10299647599458694, -0.02179659716784954, -0.07718031108379364, -0.035805534571409225, 0.04549296945333481, -0.015891309827566147, 0.06549733877182007, -0.008883186616003513, -0.054143935441970825, -0.0018331730971112847, 0.047229308634996414, -0.01300185825675726, -0.010697988793253899, -0.009085644967854023, 0.0022132662124931812, 0.013445930555462837, -0.05599343404173851, -0.0018171750707551837, 0.04925830289721489, 0.09100126475095749, 0.011267002671957016, 0.0005696059088222682, 0.05018039047718048, -0.009851651266217232, 0.05096997320652008, 0.008305234834551811, -0.054622553288936615, -0.014440339989960194, -0.0634986013174057, 0.015641259029507637, 0.08585825562477112, 0.027890341356396675, 0.06869663298130035, 0.009577533230185509, 0.03312525525689125, 0.04383014887571335, 0.04873649403452873, 0.058479148894548416, 0.003954845480620861, 0.0628669485449791, 0.01675485074520111, -0.0061091831885278225, 0.005366734229028225, 0.04346756264567375, -0.02219773828983307, -0.0014911821344867349, 0.06990388035774231, 0.11893758922815323, 0.038301315158605576, 0.02077191136777401, 0.10679856687784195, 0.1069231927394867, 0.10635916143655777, 0.03212416172027588, 0.05353318154811859, -0.04326159507036209, -0.03188970312476158, -0.025272617116570473, 0.006244087126106024, -0.028189510107040405, 0.02053230255842209, 0.06542328745126724, 0.16579928994178772, 0.17110170423984528, 0.06899813562631607, 0.04274255037307739, 0.017302757129073143, 0.05103137716650963, 0.030879920348525047, 0.07676220685243607, 0.06833094358444214, 0.023436477407813072, -0.0017068230081349611, -0.01383929792791605, 0.052645519375801086, 0.036566950380802155, 0.10332172363996506, 0.20016416907310486, 0.24081140756607056, 0.2055450975894928, 0.06184475123882294, -0.08461113274097443, 0.09551920741796494, 0.054904598742723465, 0.026290619745850563, 0.06615696847438812, 0.06189092621207237, -0.022097254171967506, -0.017207195982336998, 0.033827826380729675, 0.03241095319390297, -0.011361652985215187, 0.08619024604558945, 0.1997717171907425, 0.1881883144378662, 0.12875612080097198, -0.03945508971810341, -0.05505998432636261, 0.037426967173814774, 0.1035856232047081, 0.09467925131320953, 0.04580039158463478, 0.001265337341465056, -0.042739853262901306, 0.0002903126587625593, -0.015402868390083313, -0.012268945574760437, -0.0009857338154688478, 0.10184994339942932, 0.05681989714503288, 0.05263060703873634, -0.056170374155044556, -0.09445672482252121, -0.11650816351175308, 0.024172676727175713, 0.14072167873382568, 0.05777106061577797, 0.012192749418318272, 0.04033879190683365, 0.03341946750879288, -0.030994942411780357, -0.05032570660114288, -0.056407179683446884, -0.02105085738003254, -0.04897381737828255, 0.011430786922574043, 0.02818153239786625, -0.08070288598537445, -0.11227534711360931, -0.05182002857327461, 0.0006170401466079056, 0.05533522367477417, 0.06369490176439285, 0.042353685945272446, -0.04719460755586624, -0.0508248507976532, 0.008195420727133751, -0.05446162819862366, 0.059788331389427185, 0.037747278809547424, -0.001445178291760385, 0.01740318536758423, -0.06778845936059952, -0.054216086864471436, -0.047607939690351486, 0.01761540211737156, 0.1392490416765213, 0.02516145072877407, -0.028091464191675186, -0.07904353737831116, -0.07377895712852478, -0.04873352497816086, -0.02282644249498844, 0.056345198303461075, -0.028565505519509315, -0.025532742962241173, -0.052209895104169846, 0.04668278247117996, -0.01283041201531887, 0.01603052206337452, 0.026092885062098503, 0.15004253387451172, 0.053485143929719925, -0.0013557757483795285, 0.04210739582777023, -0.07249362021684647, -0.014231618493795395, -0.023746268823742867, -0.037278998643159866, 0.023944087326526642, -0.001668970682658255, 0.008948027156293392, 0.0639842301607132, -0.00032934456248767674, 0.08602487295866013, 0.12401670962572098, 0.15652571618556976, 0.10776694864034653, 0.09662317484617233, -0.006780948489904404, -0.0023856000043451786, 0.02493211440742016, -0.0038349414244294167, -0.05877549573779106, 0.034848690032958984, 0.029549792408943176, 0.02384527586400509, 0.03722973167896271, 0.06334374845027924, 0.03558803349733353, 0.05761947110295296, 0.022521106526255608, 0.07628442347049713, 0.06746865808963776, 0.04757232218980789, -0.03630802407860756, -0.022215090692043304, 0.004807448014616966, 0.0032162535935640335, 0.004143991973251104, 0.05958980694413185, -0.03246153146028519, 0.04120399057865143, -0.004491744097322226, -0.01420775055885315, -0.03073362074792385, -0.0004398365563247353, 0.03131507709622383, 0.006384056992828846, -0.0084761967882514, 0.027067512273788452, 0.047024503350257874, 0.03953570872545242, 0.026837166398763657, 0.056131258606910706, -0.02973957359790802, -0.020199693739414215, -0.0008408725261688232, 0.0015416517853736877, -0.04981081932783127, -0.018461644649505615, 0.02958618849515915, -0.032534513622522354, 0.06126207113265991, -0.05071238428354263, 0.0006191545980982482, -0.0285049919039011, 0.029590504243969917, 0.05166836827993393, 0.030206210911273956, -0.009499616920948029, 0.011993490159511566, 0.0365801677107811, -0.047176793217659, -0.03164486959576607, -0.041773471981287, 0.04058833047747612, -0.0578603595495224, 0.01372870709747076, 0.03300086781382561, -0.040211208164691925, -0.004285527393221855, -0.040294721722602844, -0.044257618486881256, 0.050917353481054306, 0.05049731209874153, 0.04603803530335426, -0.0032013121526688337, -0.030798204243183136, -0.05967586487531662, 0.00672805355861783, -0.04686170443892479, 0.06159374862909317, 0.06788463890552521, 0.04311316832900047, 0.06855981796979904, 0.007254012860357761, 0.1251610964536667, 0.12008234858512878, 0.06644616276025772, 0.005034663248807192, -0.04663526639342308, 0.02239975519478321, -0.0383705236017704, 0.03753330931067467, 0.05316663905978203, -0.014419912360608578, 0.059249397367239, -0.03477475792169571, 0.002228549914434552, 0.012449842877686024, 0.049039870500564575, 0.030974961817264557, 0.04424135759472847, 0.0763959288597107, 0.04708433523774147, 0.09373211115598679, 0.04356648027896881, 0.041240572929382324, 0.06003182753920555, 0.027755748480558395, -0.003910731058567762, -0.04900549352169037, -0.0456806980073452, -0.032407246530056, -0.04219726473093033, 0.022260017693042755, -0.040267493575811386, 0.04704180732369423, 0.0028060954064130783, -0.015335523523390293, 0.05675068497657776, -0.038061242550611496, -0.05631608888506889, -0.004618335515260696, -0.021995438262820244, -0.04388268664479256, -0.033468421548604965, 0.022252198308706284, -0.029888205230236053, -0.02687338925898075, -0.05039440095424652, 0.005355967674404383, 0.014637651853263378, -0.05136857554316521, 0.14397162199020386, 0.09622208774089813, 0.04992920532822609, -0.06633200496435165, 0.0036268748808652163, -0.07096530497074127, -0.03343489021062851, -0.02037999778985977, -0.02010292187333107, 0.02680720016360283, -0.040266867727041245, -0.02162572368979454, -0.03587959334254265, -0.027218418195843697, -0.12877413630485535, -0.06390827894210815, 0.0987020954489708, 0.0700928196310997, -0.027917398139834404, 0.03222350403666496, -0.06941643357276917, 0.010037395171821117, 0.015512049198150635, -0.040407828986644745, -0.04879273101687431, -0.01280844584107399, -0.04789654538035393, -0.03668884187936783, -0.04162368178367615, -0.13252155482769012, -0.1339578479528427, 0.011894665658473969, 0.21366514265537262, 0.1225452870130539, 0.036447249352931976, -0.014032349921762943, -0.021060559898614883, -0.04982113838195801, 0.010922307148575783, -0.047831494361162186, -0.04189681261777878, 0.05984542518854141, 0.044902924448251724, -0.023729674518108368, 0.013408282771706581, -0.051518820226192474, -0.08893462270498276, 0.24459336698055267, 0.37527477741241455, 0.15030857920646667, 0.012524260208010674, -0.07620544731616974, -0.05911921337246895, -0.09401696920394897, 0.011648518033325672, -0.05527888238430023, 0.046364184468984604, 0.03312257304787636, -0.050209082663059235, 0.05027313530445099, -0.0006585282390005887, 0.0026624288875609636, 0.16923007369041443, 0.3085039556026459, 0.3414866030216217, 0.05311616137623787, -0.039980724453926086, -0.06362395733594894, -0.0382048599421978, 0.043570443987846375, 0.06839543581008911, -0.00058290536981076, 0.03210742771625519, -0.018764546141028404, 0.04135603830218315, -0.040761690586805344, -0.03530072420835495, 0.07240816950798035, 0.2607896625995636, 0.3907248377799988, 0.29427364468574524, 0.042789436876773834, -0.07509928196668625, -0.043288715183734894, 0.04020163044333458, 0.04379850998520851, 0.007425654213875532, 0.043529484421014786, 0.04804839938879013, -0.03292736038565636, -0.01849711500108242, -0.021483594551682472, 0.04233808070421219, 0.017890268936753273, 0.15597815811634064, 0.2129242718219757, 0.14650753140449524, -0.034219883382320404, 0.0028339179698377848, -0.03284599259495735, 0.055937208235263824, 0.0670991763472557, -0.04544658213853836, -0.014939174987375736, 0.04711269959807396, 0.04038728028535843, -0.04599948972463608, 0.05904890224337578, -0.018102604895830154, 0.031248269602656364, -0.028743470087647438, 0.011588087305426598, 0.012105701491236687, 0.028285767883062363, -0.06042720004916191, 0.04543083906173706, 0.03479054570198059, 0.06992106884717941, 0.016214389353990555, 0.006110372953116894, 0.03533089905977249, 0.05852479860186577, -0.036075957119464874, -0.06231663376092911, 0.04041529819369316, 0.01885680854320526, -0.033671047538518906, -0.04503299295902252, 0.009982369840145111, -0.04346051439642906, -0.044102881103754044, 0.0339818000793457, 0.015530514530837536, 0.06492547690868378, -0.047776415944099426, 0.02042388543486595, 0.06212428957223892, -0.028519608080387115, 0.05642792582511902, 0.0026821710634976625, 0.01827377639710903, 0.017476752400398254, -0.06395002454519272, -0.05856212601065636, 0.004056911449879408, -0.030899858102202415, -0.022198621183633804, 0.010185353457927704, 0.050577785819768906, -0.030019227415323257, 0.037491921335458755, 0.030526243150234222, 0.03824325650930405, 0.0405268669128418, -0.03320998698472977, 0.02186460979282856, -0.043523311614990234, 0.048659566789865494, -0.04089372232556343, 0.049417443573474884, -0.03825399652123451, -0.053264569491147995, 0.007405919022858143, -0.059021346271038055, -0.031569771468639374, -0.01618960127234459, 0.01437821239233017, 0.01331058144569397, -0.03228867053985596, -0.009823322296142578, -0.0338224321603775, -0.006250292062759399, 0.05491100251674652, -0.019667109474539757, 0.008762355893850327, -0.0005783282103948295, -0.021130109205842018, 0.026898281648755074, 0.03458615019917488, 0.030290596187114716, -0.027057699859142303, 0.04278014600276947, -0.023311659693717957, -0.024873636662960052, -0.06107258051633835, -0.062221694737672806, 0.013034315779805183, -0.026167919859290123, 0.058270324021577835, 0.01588669791817665, -0.011478901840746403, 0.04561428725719452, -0.06471358239650726, 0.037509191781282425, -0.00854865275323391, 0.021910766139626503, -0.01543732825666666, -0.014590436592698097, -0.05286127328872681, -0.011386342346668243, -0.034285541623830795, 0.046746980398893356, 0.03590383008122444, 0.018129121512174606, -0.053498998284339905, -0.0079632718116045, -0.08831585943698883, -0.02598295547068119, -0.049293480813503265, 0.004858139902353287, -0.006931370589882135, -0.017747076228260994, 0.06117618829011917, 0.0009566832450218499, -0.016030794009566307, 0.02392455004155636, -0.03600282222032547, -0.020221715793013573, 0.013448996469378471, -0.07077985256910324, -0.00528999837115407, -0.11821974068880081, -0.12258948385715485, -0.12435580790042877, -0.0703701451420784, 0.0344097763299942, 0.059788063168525696, 0.015080118551850319, 0.06366701424121857, 0.006561986170709133, 0.0331638939678669, 0.022003592923283577, -0.03313938155770302, 0.010884828865528107, 0.01943107135593891, -0.03976555913686752, -0.09912443161010742, -0.027426723390817642, -0.036175090819597244, 0.0508478581905365, 0.06318493187427521, 0.07473967969417572, 0.10035437345504761, 0.0792570486664772, 0.03073301538825035, 0.05472194403409958, 0.06189453601837158, -0.03189981356263161, -0.029508858919143677, 0.020655175670981407, -0.06175107881426811, 0.03977445885539055, 0.013343674130737782, 0.05374831706285477, 0.08915841579437256, 0.10214203596115112, 0.10667326301336288, 0.07381119579076767, 0.021067073568701744, 0.03845757618546486, 0.0444539338350296, 0.051482006907463074, -0.026028236374258995, -0.03310808911919594, -0.0560380220413208, 0.031440358608961105, -0.03777746856212616, 0.06900189816951752, 0.0327971912920475, 0.15781347453594208, 0.1390644758939743, 0.07514515519142151, 0.12377772480249405, 0.08157605677843094, -0.009683960117399693, -0.00809573382139206, 0.10343755781650543, 0.07600174844264984, 0.04723566398024559, 0.05927247926592827, 0.010743544436991215, 0.007684551179409027, -0.042714908719062805, 0.07274803519248962, 0.11407580226659775, 0.1304604709148407, 0.025440653786063194, -0.03669809550046921, 0.12186369299888611, -0.04569709673523903, -0.0765136256814003, 0.006050935480743647, 0.14536653459072113, 0.10132540017366409, 0.010790708474814892, 1.4719656064698938e-05, -0.025363124907016754, -0.04267389699816704, 0.025556404143571854, 0.05655427649617195, 0.13937290012836456, 0.10612258315086365, -0.04005811735987663, 0.0511585995554924, 0.08601135015487671, -0.11615283787250519, -0.11173242330551147, -0.014573486521840096, 0.07916036248207092, 0.08454684168100357, -0.053977709263563156, -0.018232956528663635, 0.0012957606231793761, -0.029001131653785706, 0.0009468939388170838, 0.06611807644367218, 0.01733381487429142, 0.019517872482538223, 0.0043812524527311325, 0.07577771693468094, 0.07842046022415161, -0.07382464408874512, -0.10012789070606232, 0.008590858429670334, -0.03043358027935028, 0.038957271724939346, 0.03989500179886818, -0.030173135921359062, -0.03732415661215782, -0.025651011615991592, 0.0393495038151741, 0.021086357533931732, 0.0687238946557045, -0.03854646161198616, 0.04955325648188591, 0.14431658387184143, 0.12034886330366135, -0.0014109460171312094, -0.07845332473516464, -0.07408472895622253, -0.046649545431137085, 0.0252369474619627, 0.04505646973848343, 0.01206174772232771, 0.017292175441980362, -0.04122468829154968, 0.01867598108947277, -0.04863892123103142, 0.006571304518729448, -0.0301735308021307, 0.011457903310656548, 0.059399865567684174, 0.06702859699726105, -0.02690678834915161, -0.11507236212491989, -0.023034270852804184, -0.08547012507915497, -0.015746627002954483, -0.006775592919439077, -0.048687562346458435, 0.05810629576444626, -0.021953007206320763, -0.07022419571876526, -0.0012246951228007674, 0.017641538754105568, 0.05818094313144684, 0.05771440640091896, 0.09763305634260178, 0.055524371564388275, -0.03966343030333519, -0.06681586802005768, -0.0703423023223877, -0.037878166884183884, -0.014755716547369957, 0.054142918437719345, 0.014728955924510956, 0.023116067051887512, 0.022517425939440727, 0.04192987084388733, -0.04615240544080734, 0.02267065830528736, 0.04746534675359726, 0.012729440815746784, 0.10686267167329788, 0.058083489537239075, 0.019817087799310684, -0.021590009331703186, 0.04889664426445961, -0.052887655794620514, 